{"learner":{"attributes":{"best_iteration":"499","best_score":"0.00938345701274965","scikit_learn":"{\"_estimator_type\": \"regressor\"}"},"feature_names":[],"feature_types":[],"gradient_booster":{"model":{"cats":{"enc":[],"feature_segments":[],"sorted_idx":[]},"gbtree_model_param":{"num_parallel_tree":"1","num_trees":"500"},"iteration_indptr":[0,1,2,3,4,5,6,7,8,9,10,11,12,13,14,15,16,17,18,19,20,21,22,23,24,25,26,27,28,29,30,31,32,33,34,35,36,37,38,39,40,41,42,43,44,45,46,47,48,49,50,51,52,53,54,55,56,57,58,59,60,61,62,63,64,65,66,67,68,69,70,71,72,73,74,75,76,77,78,79,80,81,82,83,84,85,86,87,88,89,90,91,92,93,94,95,96,97,98,99,100,101,102,103,104,105,106,107,108,109,110,111,112,113,114,115,116,117,118,119,120,121,122,123,124,125,126,127,128,129,130,131,132,133,134,135,136,137,138,139,140,141,142,143,144,145,146,147,148,149,150,151,152,153,154,155,156,157,158,159,160,161,162,163,164,165,166,167,168,169,170,171,172,173,174,175,176,177,178,179,180,181,182,183,184,185,186,187,188,189,190,191,192,193,194,195,196,197,198,199,200,201,202,203,204,205,206,207,208,209,210,211,212,213,214,215,216,217,218,219,220,221,222,223,224,225,226,227,228,229,230,231,232,233,234,235,236,237,238,239,240,241,242,243,244,245,246,247,248,249,250,251,252,253,254,255,256,257,258,259,260,261,262,263,264,265,266,267,268,269,270,271,272,273,274,275,276,277,278,279,280,281,282,283,284,285,286,287,288,289,290,291,292,293,294,295,296,297,298,299,300,301,302,303,304,305,306,307,308,309,310,311,312,313,314,315,316,317,318,319,320,321,322,323,324,325,326,327,328,329,330,331,332,333,334,335,336,337,338,339,340,341,342,343,344,345,346,347,348,349,350,351,352,353,354,355,356,357,358,359,360,361,362,363,364,365,366,367,368,369,370,371,372,373,374,375,376,377,378,379,380,381,382,383,384,385,386,387,388,389,390,391,392,393,394,395,396,397,398,399,400,401,402,403,404,405,406,407,408,409,410,411,412,413,414,415,416,417,418,419,420,421,422,423,424,425,426,427,428,429,430,431,432,433,434,435,436,437,438,439,440,441,442,443,444,445,446,447,448,449,450,451,452,453,454,455,456,457,458,459,460,461,462,463,464,465,466,467,468,469,470,471,472,473,474,475,476,477,478,479,480,481,482,483,484,485,486,487,488,489,490,491,492,493,494,495,496,497,498,499,500],"tree_info":[0,0,0,0,0,0,0,0,0,0,0,0,0,0,0,0,0,0,0,0,0,0,0,0,0,0,0,0,0,0,0,0,0,0,0,0,0,0,0,0,0,0,0,0,0,0,0,0,0,0,0,0,0,0,0,0,0,0,0,0,0,0,0,0,0,0,0,0,0,0,0,0,0,0,0,0,0,0,0,0,0,0,0,0,0,0,0,0,0,0,0,0,0,0,0,0,0,0,0,0,0,0,0,0,0,0,0,0,0,0,0,0,0,0,0,0,0,0,0,0,0,0,0,0,0,0,0,0,0,0,0,0,0,0,0,0,0,0,0,0,0,0,0,0,0,0,0,0,0,0,0,0,0,0,0,0,0,0,0,0,0,0,0,0,0,0,0,0,0,0,0,0,0,0,0,0,0,0,0,0,0,0,0,0,0,0,0,0,0,0,0,0,0,0,0,0,0,0,0,0,0,0,0,0,0,0,0,0,0,0,0,0,0,0,0,0,0,0,0,0,0,0,0,0,0,0,0,0,0,0,0,0,0,0,0,0,0,0,0,0,0,0,0,0,0,0,0,0,0,0,0,0,0,0,0,0,0,0,0,0,0,0,0,0,0,0,0,0,0,0,0,0,0,0,0,0,0,0,0,0,0,0,0,0,0,0,0,0,0,0,0,0,0,0,0,0,0,0,0,0,0,0,0,0,0,0,0,0,0,0,0,0,0,0,0,0,0,0,0,0,0,0,0,0,0,0,0,0,0,0,0,0,0,0,0,0,0,0,0,0,0,0,0,0,0,0,0,0,0,0,0,0,0,0,0,0,0,0,0,0,0,0,0,0,0,0,0,0,0,0,0,0,0,0,0,0,0,0,0,0,0,0,0,0,0,0,0,0,0,0,0,0,0,0,0,0,0,0,0,0,0,0,0,0,0,0,0,0,0,0,0,0,0,0,0,0,0,0,0,0,0,0,0,0,0,0,0,0,0,0,0,0,0,0,0,0,0,0,0,0,0,0,0,0,0,0,0,0,0,0,0,0,0,0,0,0,0,0,0,0,0,0,0,0,0,0,0,0,0,0,0,0,0,0,0,0,0,0,0,0,0,0,0,0,0,0,0,0,0,0,0,0,0,0,0,0,0,0,0,0],"trees":[{"base_weights":[-1.1612077E-4,-7.874017E-2,1.0174361E-1,-1.4539662E-1,-2.0087358E-2,2.6977824E-2,1.6019623E-1,-1.8537267E-1,-1.05743505E-1,-4.482404E-2,2.7815938E-2,-2.1871354E-2,9.3703926E-2,1.1059157E-1,2.2503157E-1,-2.0380595E-1,-1.4581513E-1,-1.2484373E-1,-6.6008806E-2,-7.3289774E-2,-1.1347678E-2,-7.0175044E-3,5.277811E-2,-4.102897E-2,2.3862788E-2,6.068817E-2,1.3626334E-1,7.376582E-2,1.42057E-1,1.9048074E-1,2.7371722E-1,-2.3228376E-1,-1.7148119E-1,-1.19578026E-1,-8.918083E-3,-1.4523527E-1,-9.063425E-2,-8.828031E-2,-2.2851368E-2,-9.3115E-2,-3.5439618E-2,-4.9763322E-2,1.1532434E-2,-3.5927802E-2,3.391563E-2,3.0375801E-2,8.486558E-2,-6.4196385E-2,-1.3633958E-2,-0E0,5.2854553E-2,4.010879E-2,9.8977506E-2,9.962083E-2,1.6806917E-1,4.05842E-2,9.94271E-2,1.18136734E-1,1.7156853E-1,1.438182E-1,1.1017497E-2,1.0118942E-2,1.43639E-2,-1.2374391E-2,-9.368274E-3,-9.666111E-3,-6.686604E-3,-7.4936165E-3,-2.533017E-3,-8.184728E-3,-6.132005E-3,-1.697088E-3,-5.0446256E-3,-5.0898883E-3,-2.4330632E-3,-2.1816685E-3,6.388503E-4,-6.0161245E-3,-3.1015468E-3,-3.8545511E-3,-6.323119E-4,-3.709209E-3,2.7341186E-4,-3.289258E-5,2.3854931E-3,-3.0779166E-3,5.063592E-4,-0E0,2.278547E-3,-0E0,2.4604653E-3,2.9347301E-3,5.0267396E-3,-3.795917E-3,-1.3781518E-3,-1.5957669E-3,9.5320836E-4,-8.930596E-4,1.3733708E-3,7.9218607E-4,3.4765934E-3,3.654245E-4,2.8081131E-3,3.199214E-3,6.2951385E-3,1.1656968E-3,5.4320986E-3,3.3196055E-3,8.693283E-3,6.888644E-4,3.4449343E-3,3.720789E-3,6.3072667E-3,4.6982984E-3,6.929062E-3,6.4659505E-3,9.472038E-3,5.6501287E-3,8.439528E-3],"categories":[],"categories_nodes":[],"categories_segments":[],"categories_sizes":[],"default_left":[0,0,0,0,0,0,0,0,0,0,0,0,0,0,0,0,0,0,0,0,0,0,0,0,0,0,0,0,0,0,0,0,0,0,0,0,0,0,0,0,0,0,0,0,0,0,0,0,0,0,0,0,0,0,0,0,0,0,0,0,0,0,0,0,0,0,0,0,0,0,0,0,0,0,0,0,0,0,0,0,0,0,0,0,0,0,0,0,0,0,0,0,0,0,0,0,0,0,0,0,0,0,0,0,0,0,0,0,0,0,0,0,0,0,0,0,0,0,0],"id":0,"left_children":[1,3,5,7,9,11,13,15,17,19,21,23,25,27,29,31,33,35,37,39,41,43,45,47,49,51,53,55,57,59,61,63,65,67,-1,69,71,73,75,77,79,81,83,85,87,89,91,93,95,97,99,101,103,105,107,109,111,113,115,117,-1,-1,-1,-1,-1,-1,-1,-1,-1,-1,-1,-1,-1,-1,-1,-1,-1,-1,-1,-1,-1,-1,-1,-1,-1,-1,-1,-1,-1,-1,-1,-1,-1,-1,-1,-1,-1,-1,-1,-1,-1,-1,-1,-1,-1,-1,-1,-1,-1,-1,-1,-1,-1,-1,-1,-1,-1,-1,-1],"loss_changes":[2.866858E1,7.881809E0,6.7901897E0,1.449276E0,1.279159E0,2.2452602E0,2.7524548E0,2.7657318E-1,3.354478E-1,6.691903E-1,3.2319015E-1,3.4965384E-1,3.8092852E-1,5.4499054E-1,5.356045E-1,2.0975971E-1,8.0382824E-2,1.8647671E-1,1.3969731E-1,2.7124286E-1,2.944519E-1,1.8129487E-1,1.4044714E-1,1.6968441E-1,7.64196E-2,1.1371261E-1,1.0216856E-1,1.8035913E-1,1.3853645E-1,2.4549198E-1,4.090786E-2,2.1463394E-2,6.7585945E-2,1.6025734E-1,0E0,3.3457756E-2,5.52063E-2,3.5161972E-2,4.5847595E-2,1.8488526E-1,1.18217155E-1,1.7587751E-1,9.558532E-2,1.1318417E-1,2.2135228E-2,7.377483E-2,1.3442934E-2,5.1971495E-2,8.079877E-2,3.3566713E-2,2.1840096E-2,5.221702E-2,2.5718749E-2,2.6950777E-2,2.1505356E-3,7.0480675E-2,5.67621E-2,3.8835764E-2,3.0461311E-2,2.354455E-2,0E0,0E0,0E0,0E0,0E0,0E0,0E0,0E0,0E0,0E0,0E0,0E0,0E0,0E0,0E0,0E0,0E0,0E0,0E0,0E0,0E0,0E0,0E0,0E0,0E0,0E0,0E0,0E0,0E0,0E0,0E0,0E0,0E0,0E0,0E0,0E0,0E0,0E0,0E0,0E0,0E0,0E0,0E0,0E0,0E0,0E0,0E0,0E0,0E0,0E0,0E0,0E0,0E0,0E0,0E0,0E0,0E0,0E0,0E0],"parents":[2147483647,0,0,1,1,2,2,3,3,4,4,5,5,6,6,7,7,8,8,9,9,10,10,11,11,12,12,13,13,14,14,15,15,16,16,17,17,18,18,19,19,20,20,21,21,22,22,23,23,24,24,25,25,26,26,27,27,28,28,29,29,30,30,31,31,32,32,33,33,35,35,36,36,37,37,38,38,39,39,40,40,41,41,42,42,43,43,44,44,45,45,46,46,47,47,48,48,49,49,50,50,51,51,52,52,53,53,54,54,55,55,56,56,57,57,58,58,59,59],"right_children":[2,4,6,8,10,12,14,16,18,20,22,24,26,28,30,32,34,36,38,40,42,44,46,48,50,52,54,56,58,60,62,64,66,68,-1,70,72,74,76,78,80,82,84,86,88,90,92,94,96,98,100,102,104,106,108,110,112,114,116,118,-1,-1,-1,-1,-1,-1,-1,-1,-1,-1,-1,-1,-1,-1,-1,-1,-1,-1,-1,-1,-1,-1,-1,-1,-1,-1,-1,-1,-1,-1,-1,-1,-1,-1,-1,-1,-1,-1,-1,-1,-1,-1,-1,-1,-1,-1,-1,-1,-1,-1,-1,-1,-1,-1,-1,-1,-1,-1,-1],"split_conditions":[1.3257402E-1,-1.0943735E-1,-2.4190974E-1,-7.082407E-1,-4.0347224E-1,9.424558E-1,9.593724E-1,5.217992E-1,5.818751E-1,9.1793634E-2,5.8446574E-1,5.640593E-1,1.4776899E0,7.4217093E-1,1.6672633E0,-8.601143E-1,-1.011843E0,3.0014616E-1,1.6124448E-1,5.6685615E-1,6.22315E-1,3.140363E-1,2.3069532E-1,1.1628691E-1,1.1628691E-1,6.612905E-1,1.473543E-1,-7.488838E-2,1.7636281E-1,4.8353437E-1,1.4289103E-1,7.307414E-1,-9.862024E-1,-1.1249923E0,-8.918083E-3,-8.853471E-1,-8.470297E-1,-7.66444E-2,-1.2139398E-1,9.0618443E-1,3.8891122E-1,4.166664E-1,6.870079E-1,3.565905E-1,-1.5280402E-1,1.0134239E0,-1.5405463E-1,6.567146E-1,-7.150255E-1,6.202481E-1,3.8136375E-1,-4.2439616E-1,1.01267934E-1,7.2444546E-1,-1.7605539E-1,1.1628691E-1,3.7160948E-1,-2.2768022E-1,-5.193738E-1,1.01267934E-1,1.1017497E-2,1.0118942E-2,1.43639E-2,-1.2374391E-2,-9.368274E-3,-9.666111E-3,-6.686604E-3,-7.4936165E-3,-2.533017E-3,-8.184728E-3,-6.132005E-3,-1.697088E-3,-5.0446256E-3,-5.0898883E-3,-2.4330632E-3,-2.1816685E-3,6.388503E-4,-6.0161245E-3,-3.1015468E-3,-3.8545511E-3,-6.323119E-4,-3.709209E-3,2.7341186E-4,-3.289258E-5,2.3854931E-3,-3.0779166E-3,5.063592E-4,-0E0,2.278547E-3,-0E0,2.4604653E-3,2.9347301E-3,5.0267396E-3,-3.795917E-3,-1.3781518E-3,-1.5957669E-3,9.5320836E-4,-8.930596E-4,1.3733708E-3,7.9218607E-4,3.4765934E-3,3.654245E-4,2.8081131E-3,3.199214E-3,6.2951385E-3,1.1656968E-3,5.4320986E-3,3.3196055E-3,8.693283E-3,6.888644E-4,3.4449343E-3,3.720789E-3,6.3072667E-3,4.6982984E-3,6.929062E-3,6.4659505E-3,9.472038E-3,5.6501287E-3,8.439528E-3],"split_indices":[15,1,1,15,15,15,15,5,5,7,1,7,15,1,15,1,0,7,7,5,1,7,7,5,5,7,7,7,5,1,1,7,15,15,0,1,0,15,15,1,1,5,5,5,15,1,5,15,1,15,15,5,5,0,14,5,5,7,7,5,0,0,0,0,0,0,0,0,0,0,0,0,0,0,0,0,0,0,0,0,0,0,0,0,0,0,0,0,0,0,0,0,0,0,0,0,0,0,0,0,0,0,0,0,0,0,0,0,0,0,0,0,0,0,0,0,0,0,0],"split_type":[0,0,0,0,0,0,0,0,0,0,0,0,0,0,0,0,0,0,0,0,0,0,0,0,0,0,0,0,0,0,0,0,0,0,0,0,0,0,0,0,0,0,0,0,0,0,0,0,0,0,0,0,0,0,0,0,0,0,0,0,0,0,0,0,0,0,0,0,0,0,0,0,0,0,0,0,0,0,0,0,0,0,0,0,0,0,0,0,0,0,0,0,0,0,0,0,0,0,0,0,0,0,0,0,0,0,0,0,0,0,0,0,0,0,0,0,0,0,0],"sum_hessian":[3.578E3,2.02E3,1.558E3,9.44E2,1.076E3,6.85E2,8.73E2,4.67E2,4.77E2,7.11E2,3.65E2,3.95E2,2.9E2,4.97E2,3.76E2,3.14E2,1.53E2,3.19E2,1.58E2,3.82E2,3.29E2,1.51E2,2.14E2,2.8E2,1.15E2,1.66E2,1.24E2,2.32E2,2.65E2,2.24E2,1.52E2,1.62E2,1.52E2,8.9E1,6.4E1,1.96E2,1.23E2,1.02E2,5.6E1,2.48E2,1.34E2,1.24E2,2.05E2,9E1,6.1E1,1.29E2,8.5E1,1.49E2,1.31E2,6.5E1,5E1,1.11E2,5.5E1,6.1E1,6.3E1,1.04E2,1.28E2,1.51E2,1.14E2,9.1E1,1.33E2,2.8E1,1.24E2,1.16E2,4.6E1,9.2E1,6E1,6E1,2.9E1,1.02E2,9.4E1,2.1E1,1.02E2,7.3E1,2.9E1,3.7E1,1.9E1,1.29E2,1.19E2,4.5E1,8.9E1,8.7E1,3.7E1,1.52E2,5.3E1,5.9E1,3.1E1,1.7E1,4.4E1,5E1,7.9E1,3.6E1,4.9E1,1.1E2,3.9E1,8.6E1,4.5E1,3.8E1,2.7E1,1.8E1,3.2E1,3.9E1,7.2E1,2.7E1,2.8E1,8E0,5.3E1,5E0,5.8E1,5.6E1,4.8E1,7E1,5.8E1,7.4E1,7.7E1,3.8E1,7.6E1,4.5E1,4.6E1],"tree_param":{"num_deleted":"0","num_feature":"18","num_nodes":"119","size_leaf_vector":"1"}},{"base_weights":[-1.2629802E-3,-7.5841464E-2,9.741676E-2,-1.3286702E-1,-1.2258354E-2,2.4650952E-2,1.4725193E-1,-8.0766305E-2,-1.6805175E-1,3.2202393E-2,-4.9545772E-2,-1.851696E-2,9.216583E-2,1.0513445E-1,2.1379389E-1,-3.798524E-2,-1.0139126E-1,-2.0787774E-1,-1.1906159E-1,6.617078E-2,8.927362E-3,-7.807643E-2,2.1352267E-2,-4.6548802E-2,1.1195761E-2,5.7049483E-2,1.2331176E-1,6.4937264E-2,1.3289449E-1,1.8118274E-1,2.4823627E-1,-5.975502E-2,1.3503425E-3,-1.2195024E-1,-5.9698537E-2,-2.234121E-1,-1.6402616E-1,-1.3779764E-1,-7.261084E-2,2.7231019E-2,8.049958E-2,-2.5576636E-2,3.1077549E-2,-9.342328E-2,-4.275222E-2,-0E0,5.28293E-2,-6.3903786E-2,-9.910557E-3,-5.7239835E-3,4.8207294E-2,3.3902913E-2,9.087115E-2,8.7799504E-2,1.5697044E-1,2.7493998E-2,8.55804E-2,1.0013641E-1,1.504209E-1,1.4601047E-1,2.1596637E-1,1.1176339E-2,1.3972632E-2,-3.5753944E-3,-1.0984135E-3,-1.3780028E-3,1.4826943E-3,-6.696122E-3,-3.3480187E-3,-3.662945E-3,-1.1141199E-3,-1.2217111E-2,-9.620508E-3,-9.1607E-3,-6.3390746E-3,-7.95366E-3,-5.6540165E-3,-4.7901548E-3,-9.737257E-4,-0E0,2.451529E-3,3.055277E-3,5.147948E-3,-1.9519717E-3,1.0304028E-3,3.726261E-4,2.868244E-3,-5.6442567E-3,-3.6316735E-3,-3.40883E-3,-0E0,-8.1655337E-4,2.208877E-3,-0E0,3.2375075E-3,-3.822511E-3,-1.677016E-3,-1.975806E-3,1.14507835E-4,-1.2044406E-3,1.0792912E-3,9.875973E-4,3.92754E-3,1.6150951E-4,2.5164566E-3,1.1159722E-4,4.9593677E-3,1.7891955E-3,5.153732E-3,3.3614275E-3,8.174157E-3,1.2592161E-4,3.0478935E-3,2.3065496E-3,4.8477915E-3,3.6607683E-3,6.2517086E-3,6.4060986E-3,8.865963E-3,5.7633957E-3,8.837574E-3,7.3680417E-3,1.1427726E-2],"categories":[],"categories_nodes":[],"categories_segments":[],"categories_sizes":[],"default_left":[0,0,0,0,0,0,0,0,0,0,0,0,0,0,0,0,0,0,0,0,0,0,0,0,0,0,0,0,0,0,0,0,0,0,0,0,0,0,0,0,0,0,0,0,0,0,0,0,0,0,0,0,0,0,0,0,0,0,0,0,0,0,0,0,0,0,0,0,0,0,0,0,0,0,0,0,0,0,0,0,0,0,0,0,0,0,0,0,0,0,0,0,0,0,0,0,0,0,0,0,0,0,0,0,0,0,0,0,0,0,0,0,0,0,0,0,0,0,0,0,0,0,0],"id":1,"left_children":[1,3,5,7,9,11,13,15,17,19,21,23,25,27,29,31,33,35,37,39,41,43,45,47,49,51,53,55,57,59,61,63,65,67,69,71,73,75,77,79,81,83,85,87,89,91,93,95,97,99,101,103,105,107,109,111,113,115,117,119,121,-1,-1,-1,-1,-1,-1,-1,-1,-1,-1,-1,-1,-1,-1,-1,-1,-1,-1,-1,-1,-1,-1,-1,-1,-1,-1,-1,-1,-1,-1,-1,-1,-1,-1,-1,-1,-1,-1,-1,-1,-1,-1,-1,-1,-1,-1,-1,-1,-1,-1,-1,-1,-1,-1,-1,-1,-1,-1,-1,-1,-1,-1],"loss_changes":[2.6337112E1,7.376994E0,5.563676E0,1.9303455E0,1.60479E0,1.8393624E0,2.504385E0,3.6691904E-1,1.1892967E0,3.397702E-1,1.0733382E0,3.23058E-1,2.4398708E-1,5.987091E-1,3.0744934E-1,1.3008855E-1,2.2484565E-1,1.6303253E-1,2.2134113E-1,8.579373E-2,2.0311223E-1,1.8676591E-1,9.861227E-2,1.1852068E-1,1.2037601E-1,7.760161E-2,1.1473894E-1,1.6643602E-1,1.4934492E-1,1.5982485E-1,1.6051292E-2,3.127122E-2,4.2758245E-2,9.800577E-2,3.955117E-2,7.412624E-2,1.509285E-2,6.2075138E-2,9.382102E-2,3.189799E-2,3.262055E-2,6.606873E-2,9.43201E-2,7.84471E-2,1.282808E-1,6.861217E-2,4.2172983E-2,3.7103593E-2,2.8014094E-2,6.396431E-2,4.0424302E-2,3.1765416E-2,2.3545206E-2,3.4865677E-2,2.7592182E-3,6.537585E-2,4.7634363E-2,5.145359E-2,7.329607E-2,4.2094946E-2,6.453514E-3,0E0,0E0,0E0,0E0,0E0,0E0,0E0,0E0,0E0,0E0,0E0,0E0,0E0,0E0,0E0,0E0,0E0,0E0,0E0,0E0,0E0,0E0,0E0,0E0,0E0,0E0,0E0,0E0,0E0,0E0,0E0,0E0,0E0,0E0,0E0,0E0,0E0,0E0,0E0,0E0,0E0,0E0,0E0,0E0,0E0,0E0,0E0,0E0,0E0,0E0,0E0,0E0,0E0,0E0,0E0,0E0,0E0,0E0,0E0,0E0,0E0,0E0],"parents":[2147483647,0,0,1,1,2,2,3,3,4,4,5,5,6,6,7,7,8,8,9,9,10,10,11,11,12,12,13,13,14,14,15,15,16,16,17,17,18,18,19,19,20,20,21,21,22,22,23,23,24,24,25,25,26,26,27,27,28,28,29,29,30,30,31,31,32,32,33,33,34,34,35,35,36,36,37,37,38,38,39,39,40,40,41,41,42,42,43,43,44,44,45,45,46,46,47,47,48,48,49,49,50,50,51,51,52,52,53,53,54,54,55,55,56,56,57,57,58,58,59,59,60,60],"right_children":[2,4,6,8,10,12,14,16,18,20,22,24,26,28,30,32,34,36,38,40,42,44,46,48,50,52,54,56,58,60,62,64,66,68,70,72,74,76,78,80,82,84,86,88,90,92,94,96,98,100,102,104,106,108,110,112,114,116,118,120,122,-1,-1,-1,-1,-1,-1,-1,-1,-1,-1,-1,-1,-1,-1,-1,-1,-1,-1,-1,-1,-1,-1,-1,-1,-1,-1,-1,-1,-1,-1,-1,-1,-1,-1,-1,-1,-1,-1,-1,-1,-1,-1,-1,-1,-1,-1,-1,-1,-1,-1,-1,-1,-1,-1,-1,-1,-1,-1,-1,-1,-1,-1],"split_conditions":[1.3257402E-1,6.0884316E-2,-3.2391647E-1,1.2655725E-1,3.3691636E-1,1.0077744E0,1.0508292E0,-9.953581E-1,-6.633236E-1,-6.9929713E-1,5.0167066E-1,-4.7108043E-2,8.45263E-3,5.718493E-1,7.2955453E-1,3.9737734E-1,-4.626971E-1,1.3264848E0,-1.3189325E-1,4.7091794E-1,-3.8047206E-1,6.474004E-1,4.6682817E-1,5.5183715E-1,6.866911E-1,1.6282489E0,1.4776899E0,-4.4992292E-1,-4.3603274E-1,1.5432482E0,1.7043777E0,-4.626971E-1,-1.690736E-1,8.418627E-1,8.2797253E-1,2.4458548E-1,3.557068E-1,-1.3044904E-1,4.8071834E-1,-1.8600972E-1,-3.390283E-2,3.1175542E-1,4.119204E-2,-2.3520042E-1,1.0891225E0,1.0849817E0,-5.0702E-1,6.567146E-1,3.3944106E-1,3.415715E-1,-4.12048E-1,-4.2439616E-1,6.3237794E-2,-6.947377E-1,-1.1755424E0,6.870079E-1,3.6084282E-1,5.161026E-1,2.6173066E-2,2.723658E-1,-9.6385914E-1,1.1176339E-2,1.3972632E-2,-3.5753944E-3,-1.0984135E-3,-1.3780028E-3,1.4826943E-3,-6.696122E-3,-3.3480187E-3,-3.662945E-3,-1.1141199E-3,-1.2217111E-2,-9.620508E-3,-9.1607E-3,-6.3390746E-3,-7.95366E-3,-5.6540165E-3,-4.7901548E-3,-9.737257E-4,-0E0,2.451529E-3,3.055277E-3,5.147948E-3,-1.9519717E-3,1.0304028E-3,3.726261E-4,2.868244E-3,-5.6442567E-3,-3.6316735E-3,-3.40883E-3,-0E0,-8.1655337E-4,2.208877E-3,-0E0,3.2375075E-3,-3.822511E-3,-1.677016E-3,-1.975806E-3,1.14507835E-4,-1.2044406E-3,1.0792912E-3,9.875973E-4,3.92754E-3,1.6150951E-4,2.5164566E-3,1.1159722E-4,4.9593677E-3,1.7891955E-3,5.153732E-3,3.3614275E-3,8.174157E-3,1.2592161E-4,3.0478935E-3,2.3065496E-3,4.8477915E-3,3.6607683E-3,6.2517086E-3,6.4060986E-3,8.865963E-3,5.7633957E-3,8.837574E-3,7.3680417E-3,1.1427726E-2],"split_indices":[15,1,1,4,4,15,15,4,14,4,14,7,7,1,1,7,1,13,15,1,7,7,7,5,15,15,15,7,7,15,15,1,5,7,7,7,7,7,7,7,5,14,5,14,1,14,15,15,15,5,13,5,14,5,17,5,15,15,5,7,7,0,0,0,0,0,0,0,0,0,0,0,0,0,0,0,0,0,0,0,0,0,0,0,0,0,0,0,0,0,0,0,0,0,0,0,0,0,0,0,0,0,0,0,0,0,0,0,0,0,0,0,0,0,0,0,0,0,0,0,0,0,0],"split_type":[0,0,0,0,0,0,0,0,0,0,0,0,0,0,0,0,0,0,0,0,0,0,0,0,0,0,0,0,0,0,0,0,0,0,0,0,0,0,0,0,0,0,0,0,0,0,0,0,0,0,0,0,0,0,0,0,0,0,0,0,0,0,0,0,0,0,0,0,0,0,0,0,0,0,0,0,0,0,0,0,0,0,0,0,0,0,0,0,0,0,0,0,0,0,0,0,0,0,0,0,0,0,0,0,0,0,0,0,0,0,0,0,0,0,0,0,0,0,0,0,0,0,0],"sum_hessian":[3.577E3,2.038E3,1.539E3,1.073E3,9.65E2,6.27E2,9.12E2,4.35E2,6.38E2,4.39E2,5.26E2,3.82E2,2.45E2,5.61E2,3.51E2,1.44E2,2.91E2,3.49E2,2.89E2,1.76E2,2.63E2,3.76E2,1.5E2,1.98E2,1.84E2,1.18E2,1.27E2,2.32E2,3.29E2,1.85E2,1.66E2,9.4E1,5E1,1.92E2,9.9E1,2.53E2,9.6E1,2.03E2,8.6E1,5E1,1.26E2,1.01E2,1.62E2,2.59E2,1.17E2,9.1E1,5.9E1,1.32E2,6.6E1,1.25E2,5.9E1,7.3E1,4.5E1,6.5E1,6.2E1,8.5E1,1.47E2,1.19E2,2.1E2,9.6E1,8.9E1,9.9E1,6.7E1,6.9E1,2.5E1,2.3E1,2.7E1,1.55E2,3.7E1,7E1,2.9E1,1.45E2,1.08E2,5.9E1,3.7E1,1.04E2,9.9E1,5.8E1,2.8E1,2.2E1,2.8E1,7.2E1,5.4E1,8E1,2.1E1,8.8E1,7.4E1,1.29E2,1.3E2,7.3E1,4.4E1,6.6E1,2.5E1,1E1,4.9E1,9E1,4.2E1,2.1E1,4.5E1,7.7E1,4.8E1,3.3E1,2.6E1,2.8E1,4.5E1,5E0,4E1,1.7E1,4.8E1,6E0,5.6E1,5.1E1,3.4E1,3.6E1,1.11E2,6.1E1,5.8E1,1.2E2,9E1,5.2E1,4.4E1,1.7E1,7.2E1],"tree_param":{"num_deleted":"0","num_feature":"18","num_nodes":"123","size_leaf_vector":"1"}},{"base_weights":[2.9596589E-3,-6.797293E-2,9.37788E-2,-1.3226299E-1,-1.657432E-2,2.7916571E-2,1.4338025E-1,-8.7420344E-2,-1.6990693E-1,3.7237413E-2,-4.2987466E-2,-1.4004328E-2,9.5713146E-2,9.979978E-2,2.0365489E-1,-5.234813E-2,-1.1401143E-1,-1.9952863E-1,-1.09189376E-1,-0E0,6.0373668E-2,-6.906583E-2,2.5041524E-2,-3.3190567E-2,2.457766E-2,5.9383605E-2,1.2720212E-1,7.253847E-2,1.2798445E-1,1.6633254E-1,2.3748815E-1,-8.084351E-2,-2.0540107E-2,-1.2690504E-1,-6.228272E-2,-2.1709304E-1,-1.515982E-1,-1.316566E-1,-6.6759706E-2,-2.231309E-2,3.546298E-2,3.9285094E-2,8.887549E-2,-8.637529E-2,-3.184395E-2,-0E0,4.9794924E-2,-5.3646922E-2,-6.6921883E-3,4.994766E-3,5.6309033E-2,4.1727267E-2,8.9757845E-2,9.354933E-2,1.5536234E-1,3.8145393E-2,9.1115355E-2,1.07670434E-1,1.5661864E-1,1.4343639E-1,1.091659E-2,2.0977864E-1,1.3655099E-2,-4.5306985E-3,-1.2688241E-3,-2.1083662E-3,1.6845032E-4,-6.8243244E-3,-3.7001476E-3,-4.056143E-3,-1.2483182E-3,-1.1745193E-2,-9.096584E-3,-8.766591E-3,-6.0939575E-3,-7.3843463E-3,-4.082896E-3,-4.0571494E-3,-7.9421233E-4,-2.0171942E-3,2.5498867E-4,7.7802467E-4,3.175959E-3,9.6039794E-4,3.2509968E-3,3.405676E-3,5.7188463E-3,-3.0232985E-3,-5.4232255E-3,-2.876182E-3,1.8362109E-4,-6.236783E-4,2.1209244E-3,-7.028945E-5,2.9443104E-3,-3.4611996E-3,-1.1126271E-3,-1.2954777E-3,1.024635E-3,-5.403531E-4,1.455923E-3,1.5808747E-3,3.9301477E-3,9.351234E-4,3.1209232E-3,2.2565266E-3,5.1175654E-3,8.5727306E-4,5.1692678E-3,3.6505067E-3,8.147655E-3,5.2178E-4,2.8725246E-3,3.145419E-3,5.541937E-3,3.7168637E-3,6.006911E-3,5.4929205E-3,8.415796E-3,5.5074515E-3,8.334331E-3,9.003141E-3,1.1804263E-2],"categories":[],"categories_nodes":[],"categories_segments":[],"categories_sizes":[],"default_left":[0,0,0,0,0,0,0,0,0,0,0,0,0,0,0,0,0,0,0,0,0,0,0,0,0,0,0,0,0,0,0,0,0,0,0,0,0,0,0,0,0,0,0,0,0,0,0,0,0,0,0,0,0,0,0,0,0,0,0,0,0,0,0,0,0,0,0,0,0,0,0,0,0,0,0,0,0,0,0,0,0,0,0,0,0,0,0,0,0,0,0,0,0,0,0,0,0,0,0,0,0,0,0,0,0,0,0,0,0,0,0,0,0,0,0,0,0,0,0,0,0,0,0],"id":2,"left_children":[1,3,5,7,9,11,13,15,17,19,21,23,25,27,29,31,33,35,37,39,41,43,45,47,49,51,53,55,57,59,61,63,65,67,69,71,73,75,77,79,81,83,85,87,89,91,93,95,97,99,101,103,105,107,109,111,113,115,117,119,-1,121,-1,-1,-1,-1,-1,-1,-1,-1,-1,-1,-1,-1,-1,-1,-1,-1,-1,-1,-1,-1,-1,-1,-1,-1,-1,-1,-1,-1,-1,-1,-1,-1,-1,-1,-1,-1,-1,-1,-1,-1,-1,-1,-1,-1,-1,-1,-1,-1,-1,-1,-1,-1,-1,-1,-1,-1,-1,-1,-1,-1,-1],"loss_changes":[2.3277592E1,6.684289E0,5.156845E0,1.4786625E0,1.6068654E0,1.9506612E0,2.3213272E0,3.634956E-1,8.232403E-1,3.239076E-1,1.3526624E0,3.1405973E-1,2.735107E-1,3.7558556E-1,3.961687E-1,1.5316254E-1,1.2858105E-1,2.038269E-1,1.2675297E-1,1.12222426E-1,1.219368E-1,3.3978724E-1,1.2618521E-1,1.4755216E-1,7.9961866E-2,5.014339E-2,9.135318E-2,1.5738356E-1,1.0561657E-1,1.5157366E-1,8.5868835E-2,3.704369E-2,5.0042685E-2,6.2116385E-2,2.2518009E-2,6.21233E-2,1.3800859E-2,4.83613E-2,3.2913774E-2,4.7720686E-2,2.125661E-2,6.0597047E-2,2.425903E-2,1.900227E-1,1.6794117E-1,5.9540898E-2,5.4240793E-2,6.657907E-2,6.742023E-2,3.607249E-2,1.4566764E-2,3.026262E-2,4.799187E-3,3.6525488E-2,9.514689E-3,4.557094E-2,7.245517E-2,3.603828E-2,9.482384E-3,5.6116104E-2,0E0,5.7735443E-3,0E0,0E0,0E0,0E0,0E0,0E0,0E0,0E0,0E0,0E0,0E0,0E0,0E0,0E0,0E0,0E0,0E0,0E0,0E0,0E0,0E0,0E0,0E0,0E0,0E0,0E0,0E0,0E0,0E0,0E0,0E0,0E0,0E0,0E0,0E0,0E0,0E0,0E0,0E0,0E0,0E0,0E0,0E0,0E0,0E0,0E0,0E0,0E0,0E0,0E0,0E0,0E0,0E0,0E0,0E0,0E0,0E0,0E0,0E0,0E0,0E0],"parents":[2147483647,0,0,1,1,2,2,3,3,4,4,5,5,6,6,7,7,8,8,9,9,10,10,11,11,12,12,13,13,14,14,15,15,16,16,17,17,18,18,19,19,20,20,21,21,22,22,23,23,24,24,25,25,26,26,27,27,28,28,29,29,30,30,31,31,32,32,33,33,34,34,35,35,36,36,37,37,38,38,39,39,40,40,41,41,42,42,43,43,44,44,45,45,46,46,47,47,48,48,49,49,50,50,51,51,52,52,53,53,54,54,55,55,56,56,57,57,58,58,59,59,61,61],"right_children":[2,4,6,8,10,12,14,16,18,20,22,24,26,28,30,32,34,36,38,40,42,44,46,48,50,52,54,56,58,60,62,64,66,68,70,72,74,76,78,80,82,84,86,88,90,92,94,96,98,100,102,104,106,108,110,112,114,116,118,120,-1,122,-1,-1,-1,-1,-1,-1,-1,-1,-1,-1,-1,-1,-1,-1,-1,-1,-1,-1,-1,-1,-1,-1,-1,-1,-1,-1,-1,-1,-1,-1,-1,-1,-1,-1,-1,-1,-1,-1,-1,-1,-1,-1,-1,-1,-1,-1,-1,-1,-1,-1,-1,-1,-1,-1,-1,-1,-1,-1,-1,-1,-1],"split_conditions":[1.3257402E-1,-1.7251945E-1,-2.4190974E-1,2.512145E-1,-1.4613052E-1,1.0508292E0,9.593724E-1,-6.4475954E-1,-5.0702E-1,4.7091794E-1,4.7996604E-1,5.640593E-1,1.4776899E0,7.9894483E-1,7.2955453E-1,6.831904E-1,8.672356E-1,7.4708384E-1,-7.844158E-1,3.8348716E-1,2.364387E-1,6.474004E-1,1.3346414E-1,1.1628691E-1,6.866911E-1,4.946085E-1,1.473543E-1,-2.6935074E-1,2.965146E-1,1.8749381E0,1.7043777E0,8.001922E-1,3.8348716E-1,9.668742E-1,-7.02409E-1,5.0849867E-1,3.6232967E-2,6.5545386E-1,-6.506326E-2,3.1153357E-1,7.4708384E-1,2.0291498E-1,1.1017389E0,7.732168E-1,8.4310234E-1,1.0849817E0,-5.0702E-1,6.567146E-1,6.202481E-1,1.3130589E-1,1.01267934E-1,-9.673539E-1,-8.6563563E-1,8.4942386E-2,-1.2373492E0,4.3668705E-1,-2.4416848E-1,-7.555066E-1,2.758246E-1,-5.719402E-1,1.091659E-2,2.0291498E-1,1.3655099E-2,-4.5306985E-3,-1.2688241E-3,-2.1083662E-3,1.6845032E-4,-6.8243244E-3,-3.7001476E-3,-4.056143E-3,-1.2483182E-3,-1.1745193E-2,-9.096584E-3,-8.766591E-3,-6.0939575E-3,-7.3843463E-3,-4.082896E-3,-4.0571494E-3,-7.9421233E-4,-2.0171942E-3,2.5498867E-4,7.7802467E-4,3.175959E-3,9.6039794E-4,3.2509968E-3,3.405676E-3,5.7188463E-3,-3.0232985E-3,-5.4232255E-3,-2.876182E-3,1.8362109E-4,-6.236783E-4,2.1209244E-3,-7.028945E-5,2.9443104E-3,-3.4611996E-3,-1.1126271E-3,-1.2954777E-3,1.024635E-3,-5.403531E-4,1.455923E-3,1.5808747E-3,3.9301477E-3,9.351234E-4,3.1209232E-3,2.2565266E-3,5.1175654E-3,8.5727306E-4,5.1692678E-3,3.6505067E-3,8.147655E-3,5.2178E-4,2.8725246E-3,3.145419E-3,5.541937E-3,3.7168637E-3,6.006911E-3,5.4929205E-3,8.415796E-3,5.5074515E-3,8.334331E-3,9.003141E-3,1.1804263E-2],"split_indices":[15,1,1,4,4,15,15,4,15,1,14,7,15,1,1,13,5,5,1,7,5,7,7,5,15,7,7,7,5,15,15,7,7,7,1,7,7,0,15,5,5,7,1,4,1,14,15,15,15,5,5,1,13,14,11,15,5,7,15,13,0,7,0,0,0,0,0,0,0,0,0,0,0,0,0,0,0,0,0,0,0,0,0,0,0,0,0,0,0,0,0,0,0,0,0,0,0,0,0,0,0,0,0,0,0,0,0,0,0,0,0,0,0,0,0,0,0,0,0,0,0,0,0],"split_type":[0,0,0,0,0,0,0,0,0,0,0,0,0,0,0,0,0,0,0,0,0,0,0,0,0,0,0,0,0,0,0,0,0,0,0,0,0,0,0,0,0,0,0,0,0,0,0,0,0,0,0,0,0,0,0,0,0,0,0,0,0,0,0,0,0,0,0,0,0,0,0,0,0,0,0,0,0,0,0,0,0,0,0,0,0,0,0,0,0,0,0,0,0,0,0,0,0,0,0,0,0,0,0,0,0,0,0,0,0,0,0,0,0,0,0,0,0,0,0,0,0,0,0],"sum_hessian":[3.611E3,2.027E3,1.584E3,8.99E2,1.128E3,6.82E2,9.02E2,4.13E2,4.86E2,3.7E2,7.58E2,4.21E2,2.61E2,5.26E2,3.76E2,1.81E2,2.32E2,3.24E2,1.62E2,1.41E2,2.29E2,5.49E2,2.09E2,2.83E2,1.38E2,1.24E2,1.37E2,2.71E2,2.55E2,1.83E2,1.93E2,9.3E1,8.8E1,1.83E2,4.9E1,2.33E2,9.1E1,1.03E2,5.9E1,8.8E1,5.3E1,1.35E2,9.4E1,3.72E2,1.77E2,1.06E2,1.03E2,1.57E2,1.26E2,8.8E1,5E1,8.2E1,4.2E1,6.6E1,7.1E1,9.8E1,1.73E2,1.54E2,1.01E2,1.31E2,5.2E1,1.14E2,7.9E1,7.7E1,1.6E1,4.8E1,4E1,1.52E2,3.1E1,3E1,1.9E1,1.49E2,8.4E1,4.6E1,4.5E1,7.5E1,2.8E1,4.4E1,1.5E1,5.5E1,3.3E1,3.4E1,1.9E1,7.9E1,5.6E1,5.6E1,3.8E1,1.75E2,1.97E2,1.04E2,7.3E1,8.1E1,2.5E1,1.4E1,8.9E1,1.02E2,5.5E1,7.6E1,5E1,5.1E1,3.7E1,2.7E1,2.3E1,4.2E1,4E1,1.2E1,3E1,9E0,5.7E1,8E0,6.3E1,4.3E1,5.5E1,7.5E1,9.8E1,4.6E1,1.08E2,2.4E1,7.7E1,5.8E1,7.3E1,5.9E1,5.5E1],"tree_param":{"num_deleted":"0","num_feature":"18","num_nodes":"123","size_leaf_vector":"1"}},{"base_weights":[-6.963458E-6,-5.028117E-2,8.191771E-2,1.591699E-2,-9.94412E-2,1.4526944E-1,3.435388E-2,-3.0413544E-2,5.33149E-2,-1.4899324E-1,-6.7018256E-2,9.013802E-2,1.9084783E-1,-1.6743243E-2,8.40822E-2,-6.947879E-2,1.4842395E-2,2.932952E-2,1.1492762E-1,-1.8090937E-1,-9.859743E-2,-9.1381185E-2,-0E0,6.943909E-2,1.3527533E-1,1.5147783E-1,2.2410677E-1,-4.3484088E-2,2.2662913E-2,5.6326967E-2,1.3451102E-1,-1.0198689E-1,-4.3813784E-2,-5.8275084E-3,5.3855326E-2,-7.5184023E-3,5.1639773E-2,8.4767476E-2,1.3994636E-1,-1.3236047E-1,-1.9866993E-1,-1.3385876E-1,-7.314106E-2,-1.2585616E-1,-5.9477363E-2,3.4433853E-2,-2.467226E-2,3.849608E-2,9.6442915E-2,1.5755337E-1,7.738597E-2,1.07125655E-1,1.8438819E-1,8.1396215E-3,1.1930908E-2,-5.870755E-2,8.711181E-3,4.97604E-2,-3.112619E-3,3.412767E-2,9.3084835E-2,1.09212466E-1,1.676789E-1,-5.446117E-3,-1.3755186E-3,-3.3461319E-3,-8.712925E-4,-1.076537E-3,1.2790047E-3,1.393653E-3,4.9163313E-3,-1.7018274E-3,1.7728478E-3,3.214361E-3,7.807846E-4,5.2941605E-3,2.1365667E-3,5.2267215E-3,7.909896E-3,-6.8678646E-3,-1.2671893E-3,-1.0959749E-2,-7.873827E-3,-6.9768946E-3,-2.6047216E-3,-1.8624183E-3,-4.758165E-3,-3.668435E-3,-7.155062E-3,-3.9071003E-3,-5.3721754E-4,-5.153658E-4,2.505179E-3,-2.4425623E-3,1.4555154E-4,-7.1149494E-4,2.6076226E-3,2.548692E-3,5.71413E-3,5.934298E-3,9.154874E-3,1.7016605E-3,5.0121224E-3,3.640065E-3,6.341634E-3,7.998995E-3,1.108575E-2,-3.589715E-3,-1.563062E-3,-1.1500147E-3,1.9051526E-3,8.691704E-4,3.6055592E-3,-1.6040163E-3,9.779943E-4,3.924918E-3,7.815712E-4,3.339341E-3,5.9591443E-3,4.3678954E-3,6.6573746E-3,9.968656E-3,6.4587495E-3],"categories":[],"categories_nodes":[],"categories_segments":[],"categories_sizes":[],"default_left":[0,0,0,0,0,0,0,0,0,0,0,0,0,0,0,0,0,0,0,0,0,0,0,0,0,0,0,0,0,0,0,0,0,0,0,0,0,0,0,0,0,0,0,0,0,0,0,0,0,0,0,0,0,0,0,0,0,0,0,0,0,0,0,0,0,0,0,0,0,0,0,0,0,0,0,0,0,0,0,0,0,0,0,0,0,0,0,0,0,0,0,0,0,0,0,0,0,0,0,0,0,0,0,0,0,0,0,0,0,0,0,0,0,0,0,0,0,0,0,0,0,0,0],"id":3,"left_children":[1,3,5,7,9,11,13,15,17,19,21,23,25,27,29,31,33,35,37,39,41,43,45,47,49,51,53,55,57,59,61,63,65,67,69,71,73,75,77,79,81,83,85,87,89,91,93,95,97,99,101,103,105,-1,-1,107,109,111,113,115,117,119,121,-1,-1,-1,-1,-1,-1,-1,-1,-1,-1,-1,-1,-1,-1,-1,-1,-1,-1,-1,-1,-1,-1,-1,-1,-1,-1,-1,-1,-1,-1,-1,-1,-1,-1,-1,-1,-1,-1,-1,-1,-1,-1,-1,-1,-1,-1,-1,-1,-1,-1,-1,-1,-1,-1,-1,-1,-1,-1,-1,-1],"loss_changes":[1.4885929E1,7.30283E0,4.1172543E0,1.6586068E0,2.0361366E0,1.4322252E0,2.0078883E0,7.5963503E-1,7.6543987E-1,7.6969147E-1,1.2770288E0,2.2146034E-1,3.4750366E-1,4.119241E-1,5.332053E-1,1.7284524E-1,1.6397616E-1,3.2048163E-1,7.658708E-2,2.0617485E-1,1.4903438E-1,6.0421467E-1,1.7860462E-1,1.3988239E-1,7.0065975E-2,1.7150259E-1,7.22723E-2,1.9065118E-1,1.1377821E-1,1.9707763E-1,7.147193E-2,3.4496546E-2,7.089189E-2,6.327552E-2,6.552191E-2,1.6517103E-1,1.0080844E-1,4.363531E-2,6.9565773E-3,2.6771188E-2,1.1551571E-1,1.1180043E-2,7.806665E-2,2.149601E-1,2.6405656E-1,6.619126E-2,8.61024E-2,7.0058525E-2,5.714202E-2,4.682064E-3,8.924037E-3,1.6800284E-2,2.891779E-3,0E0,0E0,5.282134E-2,5.0853755E-2,4.624179E-2,5.3764403E-2,1.2559472E-1,3.93306E-2,1.02574825E-2,1.0951161E-2,0E0,0E0,0E0,0E0,0E0,0E0,0E0,0E0,0E0,0E0,0E0,0E0,0E0,0E0,0E0,0E0,0E0,0E0,0E0,0E0,0E0,0E0,0E0,0E0,0E0,0E0,0E0,0E0,0E0,0E0,0E0,0E0,0E0,0E0,0E0,0E0,0E0,0E0,0E0,0E0,0E0,0E0,0E0,0E0,0E0,0E0,0E0,0E0,0E0,0E0,0E0,0E0,0E0,0E0,0E0,0E0,0E0,0E0,0E0,0E0],"parents":[2147483647,0,0,1,1,2,2,3,3,4,4,5,5,6,6,7,7,8,8,9,9,10,10,11,11,12,12,13,13,14,14,15,15,16,16,17,17,18,18,19,19,20,20,21,21,22,22,23,23,24,24,25,25,26,26,27,27,28,28,29,29,30,30,31,31,32,32,33,33,34,34,35,35,36,36,37,37,38,38,39,39,40,40,41,41,42,42,43,43,44,44,45,45,46,46,47,47,48,48,49,49,50,50,51,51,52,52,55,55,56,56,57,57,58,58,59,59,60,60,61,61,62,62],"right_children":[2,4,6,8,10,12,14,16,18,20,22,24,26,28,30,32,34,36,38,40,42,44,46,48,50,52,54,56,58,60,62,64,66,68,70,72,74,76,78,80,82,84,86,88,90,92,94,96,98,100,102,104,106,-1,-1,108,110,112,114,116,118,120,122,-1,-1,-1,-1,-1,-1,-1,-1,-1,-1,-1,-1,-1,-1,-1,-1,-1,-1,-1,-1,-1,-1,-1,-1,-1,-1,-1,-1,-1,-1,-1,-1,-1,-1,-1,-1,-1,-1,-1,-1,-1,-1,-1,-1,-1,-1,-1,-1,-1,-1,-1,-1,-1,-1,-1,-1,-1,-1,-1,-1],"split_conditions":[4.6381053E-1,-2.240413E-1,-2.0845914E-1,-5.72629E-2,-1.3729213E-1,-6.40489E-1,-5.5605775E-1,-2.3760398E-1,-2.6826692E-1,-1.4944805E-1,-3.3342564E-1,1.2802111E0,1.0080775E0,1.2917097E0,1.253381E0,-2.5918743E-1,-5.3148824E-1,6.9386226E-1,-1.0266871E-1,2.8237882E-1,-7.683591E-1,9.6662766E-1,6.018131E-1,1.4632486E-1,-6.9929713E-1,-1.3729213E-1,-1.0610904E0,9.668742E-1,6.3297737E-1,3.415715E-1,4.166664E-1,1.2307874E0,-6.099821E-2,5.818751E-1,7.02961E-1,5.36279E-1,-6.837149E-1,-7.4604356E-1,2.7064934E-1,1.5581084E0,4.3168536E-1,1.0779955E0,4.771558E-1,2.512145E-1,7.3206484E-1,-1.8777671E-1,8.4356785E-2,-9.360788E-1,-5.4715407E-1,-9.296896E-1,-1.0527121E0,-1.9989988E-1,4.112675E-1,8.1396215E-3,1.1930908E-2,5.5183715E-1,-4.9625704E-1,-1.0227628E0,-1.1655888E-1,3.9145392E-1,2.3069532E-1,5.5016917E-1,5.706487E-1,-5.446117E-3,-1.3755186E-3,-3.3461319E-3,-8.712925E-4,-1.076537E-3,1.2790047E-3,1.393653E-3,4.9163313E-3,-1.7018274E-3,1.7728478E-3,3.214361E-3,7.807846E-4,5.2941605E-3,2.1365667E-3,5.2267215E-3,7.909896E-3,-6.8678646E-3,-1.2671893E-3,-1.0959749E-2,-7.873827E-3,-6.9768946E-3,-2.6047216E-3,-1.8624183E-3,-4.758165E-3,-3.668435E-3,-7.155062E-3,-3.9071003E-3,-5.3721754E-4,-5.153658E-4,2.505179E-3,-2.4425623E-3,1.4555154E-4,-7.1149494E-4,2.6076226E-3,2.548692E-3,5.71413E-3,5.934298E-3,9.154874E-3,1.7016605E-3,5.0121224E-3,3.640065E-3,6.341634E-3,7.998995E-3,1.108575E-2,-3.589715E-3,-1.563062E-3,-1.1500147E-3,1.9051526E-3,8.691704E-4,3.6055592E-3,-1.6040163E-3,9.779943E-4,3.924918E-3,7.815712E-4,3.339341E-3,5.9591443E-3,4.3678954E-3,6.6573746E-3,9.968656E-3,6.4587495E-3],"split_indices":[0,4,4,8,8,8,8,0,0,0,0,0,0,0,0,5,8,8,7,4,8,8,4,5,4,8,7,7,4,5,5,7,7,5,7,7,4,4,8,5,5,7,4,4,5,0,0,7,7,8,8,7,7,0,0,5,13,8,7,4,7,7,4,0,0,0,0,0,0,0,0,0,0,0,0,0,0,0,0,0,0,0,0,0,0,0,0,0,0,0,0,0,0,0,0,0,0,0,0,0,0,0,0,0,0,0,0,0,0,0,0,0,0,0,0,0,0,0,0,0,0,0,0],"split_type":[0,0,0,0,0,0,0,0,0,0,0,0,0,0,0,0,0,0,0,0,0,0,0,0,0,0,0,0,0,0,0,0,0,0,0,0,0,0,0,0,0,0,0,0,0,0,0,0,0,0,0,0,0,0,0,0,0,0,0,0,0,0,0,0,0,0,0,0,0,0,0,0,0,0,0,0,0,0,0,0,0,0,0,0,0,0,0,0,0,0,0,0,0,0,0,0,0,0,0,0,0,0,0,0,0,0,0,0,0,0,0,0,0,0,0,0,0,0,0,0,0,0,0],"sum_hessian":[3.613E3,2.24E3,1.373E3,9.54E2,1.286E3,5.87E2,7.86E2,4.25E2,5.29E2,5.06E2,7.8E2,2.68E2,3.19E2,3.87E2,3.99E2,2.29E2,1.96E2,3.83E2,1.46E2,3.07E2,1.99E2,5.72E2,2.08E2,1.87E2,8.1E1,1.5E2,1.69E2,2.32E2,1.55E2,2.6E2,1.39E2,9.8E1,1.31E2,1.27E2,6.9E1,1.43E2,2.4E2,7E1,7.6E1,8.6E1,2.21E2,8E1,1.19E2,2.72E2,3E2,8.7E1,1.21E2,9E1,9.7E1,5.6E1,2.5E1,6.7E1,8.3E1,3.6E1,1.33E2,1.81E2,5.1E1,7.7E1,7.8E1,1.65E2,9.5E1,8.3E1,5.6E1,8.8E1,1E1,6.7E1,6.4E1,8.7E1,4E1,4.6E1,2.3E1,9E1,5.3E1,1.75E2,6.5E1,4.4E1,2.6E1,3E1,4.6E1,8.1E1,5E0,1.43E2,7.8E1,7.3E1,7E0,4.8E1,7.1E1,7E1,2.02E2,2.15E2,8.5E1,2.1E1,6.6E1,6.6E1,5.5E1,1.7E1,7.3E1,3E1,6.7E1,2.6E1,3E1,1.1E1,1.4E1,2.8E1,3.9E1,5.5E1,2.8E1,1.19E2,6.2E1,2.3E1,2.8E1,3.4E1,4.3E1,3.6E1,4.2E1,4.6E1,1.19E2,5.1E1,4.4E1,4.8E1,3.5E1,2.7E1,2.9E1],"tree_param":{"num_deleted":"0","num_feature":"18","num_nodes":"123","size_leaf_vector":"1"}},{"base_weights":[9.0564816E-4,-6.1244205E-2,8.559872E-2,-1.13001585E-1,-7.523184E-3,3.3070564E-2,1.3700916E-1,-4.9402088E-2,-1.3643456E-1,4.172132E-2,-3.0598005E-2,-7.160832E-3,9.075646E-2,9.790107E-2,1.9050564E-1,-6.843975E-2,-0E0,-1.6261649E-1,-8.893022E-2,2.3973359E-2,7.35156E-2,-6.4338155E-2,1.5250452E-2,-3.3106092E-2,1.8258834E-2,5.6904547E-2,1.2096825E-1,7.199462E-2,1.2130112E-1,1.6383235E-1,2.2869126E-1,-8.282731E-2,-3.521795E-2,-2.0312736E-2,2.1268759E-2,-1.3370539E-1,-1.8439443E-1,-1.09937444E-1,-5.91711E-2,5.953992E-3,5.342476E-2,4.960704E-2,9.775292E-2,-8.157168E-2,-2.8662743E-2,-9.973791E-3,4.1909188E-2,-4.8303407E-2,-4.2577432E-3,5.588053E-3,5.762595E-2,3.9089184E-2,8.755798E-2,9.6892215E-2,1.5644106E-1,5.3798646E-2,4.917328E-3,9.4802804E-2,7.104629E-3,1.300289E-1,9.321291E-3,4.926279E-3,2.3448505E-1,-2.9586153E-3,-5.0793346E-3,-2.5644726E-3,-4.4709287E-4,-1.8729436E-3,-0E0,-0E0,2.1211146E-3,-7.996144E-3,-5.32899E-3,-1.0444247E-2,-7.866467E-3,-5.9657455E-3,-2.7637342E-3,-3.918722E-3,-1.0317739E-3,1.5904926E-3,-4.142788E-4,1.5893541E-3,3.4674369E-3,2.3476573E-4,2.8115266E-3,1.8560505E-4,5.0625587E-3,-2.991764E-3,-5.1382068E-3,-2.669097E-3,-0E0,-1.8752812E-3,5.214306E-4,6.6535984E-4,3.321974E-3,-3.0044585E-3,-7.794288E-4,-9.593299E-4,1.0557126E-3,-2.3338471E-4,1.8200584E-3,9.987456E-4,3.6780746E-3,1.1714374E-3,3.120917E-3,2.6720695E-3,5.341002E-3,3.3035215E-3,6.3420436E-3,8.076518E-3,2.2549692E-3,1.9802195E-3,5.127409E-3,3.8061433E-3,6.051644E-3,5.042988E-3,8.167083E-3,8.870159E-3,1.2495786E-2],"categories":[],"categories_nodes":[],"categories_segments":[],"categories_sizes":[],"default_left":[0,0,0,0,0,0,0,0,0,0,0,0,0,0,0,0,0,0,0,0,0,0,0,0,0,0,0,0,0,0,0,0,0,0,0,0,0,0,0,0,0,0,0,0,0,0,0,0,0,0,0,0,0,0,0,0,0,0,0,0,0,0,0,0,0,0,0,0,0,0,0,0,0,0,0,0,0,0,0,0,0,0,0,0,0,0,0,0,0,0,0,0,0,0,0,0,0,0,0,0,0,0,0,0,0,0,0,0,0,0,0,0,0,0,0,0,0,0,0],"id":4,"left_children":[1,3,5,7,9,11,13,15,17,19,21,23,25,27,29,31,33,35,37,39,41,43,45,47,49,51,53,55,57,59,61,63,65,67,69,71,73,75,77,79,81,83,85,87,89,91,93,95,97,99,101,103,105,107,109,111,-1,113,-1,115,-1,-1,117,-1,-1,-1,-1,-1,-1,-1,-1,-1,-1,-1,-1,-1,-1,-1,-1,-1,-1,-1,-1,-1,-1,-1,-1,-1,-1,-1,-1,-1,-1,-1,-1,-1,-1,-1,-1,-1,-1,-1,-1,-1,-1,-1,-1,-1,-1,-1,-1,-1,-1,-1,-1,-1,-1,-1,-1],"loss_changes":[1.9146353E1,5.81772E0,4.1372232E0,1.5648537E0,1.171698E0,1.7820885E0,1.5781069E0,2.7119166E-1,9.2802525E-1,1.7357373E-1,1.0949315E0,2.9887316E-1,2.9748797E-1,2.4594545E-1,2.553234E-1,8.517647E-2,3.5836514E-2,2.577181E-1,1.5162778E-1,1.073129E-1,4.7054887E-2,2.3686731E-1,2.0400055E-1,9.318213E-2,1.0608811E-1,6.692028E-2,9.957218E-2,8.450484E-2,9.1759205E-2,9.456968E-2,4.1635513E-2,4.1369617E-2,2.1812096E-2,1.7337065E-2,1.6098961E-2,1.1276126E-1,1.16108894E-1,5.8474302E-2,7.72832E-2,5.2687954E-2,1.4902085E-2,1.2086704E-2,6.8926215E-3,1.0288727E-1,9.914152E-2,8.847959E-2,9.427866E-2,4.7403067E-2,3.0893106E-2,5.832926E-2,2.097644E-2,2.648738E-2,1.3094515E-2,6.648171E-2,7.750988E-3,7.44465E-2,0E0,2.3988426E-2,0E0,3.8728476E-2,0E0,0E0,2.1272182E-2,0E0,0E0,0E0,0E0,0E0,0E0,0E0,0E0,0E0,0E0,0E0,0E0,0E0,0E0,0E0,0E0,0E0,0E0,0E0,0E0,0E0,0E0,0E0,0E0,0E0,0E0,0E0,0E0,0E0,0E0,0E0,0E0,0E0,0E0,0E0,0E0,0E0,0E0,0E0,0E0,0E0,0E0,0E0,0E0,0E0,0E0,0E0,0E0,0E0,0E0,0E0,0E0,0E0,0E0,0E0,0E0],"parents":[2147483647,0,0,1,1,2,2,3,3,4,4,5,5,6,6,7,7,8,8,9,9,10,10,11,11,12,12,13,13,14,14,15,15,16,16,17,17,18,18,19,19,20,20,21,21,22,22,23,23,24,24,25,25,26,26,27,27,28,28,29,29,30,30,31,31,32,32,33,33,34,34,35,35,36,36,37,37,38,38,39,39,40,40,41,41,42,42,43,43,44,44,45,45,46,46,47,47,48,48,49,49,50,50,51,51,52,52,53,53,54,54,55,55,57,57,59,59,62,62],"right_children":[2,4,6,8,10,12,14,16,18,20,22,24,26,28,30,32,34,36,38,40,42,44,46,48,50,52,54,56,58,60,62,64,66,68,70,72,74,76,78,80,82,84,86,88,90,92,94,96,98,100,102,104,106,108,110,112,-1,114,-1,116,-1,-1,118,-1,-1,-1,-1,-1,-1,-1,-1,-1,-1,-1,-1,-1,-1,-1,-1,-1,-1,-1,-1,-1,-1,-1,-1,-1,-1,-1,-1,-1,-1,-1,-1,-1,-1,-1,-1,-1,-1,-1,-1,-1,-1,-1,-1,-1,-1,-1,-1,-1,-1,-1,-1,-1,-1,-1,-1],"split_conditions":[1.6198465E-1,6.0884316E-2,-3.373883E-2,-3.7986287E-1,-9.938404E-2,1.0077744E0,9.593724E-1,7.02961E-1,-4.953614E-1,1.0891225E0,1.9183752E-1,-3.3217873E-2,1.4776899E0,8.304859E-1,1.6672633E0,4.231198E-1,-6.8979263E-1,7.0309705E-1,-7.276419E-1,3.279265E-1,2.2468448E-1,6.474004E-1,-2.265361E-1,-7.02409E-1,-4.4377246E-1,6.1962E-1,-6.014777E-1,6.0561115E-1,-1.4433922E-1,6.5385604E-1,7.9739577E-1,-1.0187314E0,-7.276419E-1,4.7160065E-1,7.712378E-1,-4.7108043E-2,-1.087587E-3,7.9343706E-1,4.946085E-1,-9.564027E-1,-4.9568433E-2,-9.360788E-1,-9.4646406E-1,8.5112756E-1,8.6202693E-1,1.076506E0,-3.3431602E-1,7.479839E-1,-2.2558329E-1,-1.1876322E-1,4.4741046E-1,-6.014777E-1,9.58741E-2,1.473543E-1,2.5928062E-1,1.0641054E0,4.917328E-3,6.317617E-1,7.104629E-3,2.723658E-1,9.321291E-3,4.926279E-3,-9.2218864E-1,-2.9586153E-3,-5.0793346E-3,-2.5644726E-3,-4.4709287E-4,-1.8729436E-3,-0E0,-0E0,2.1211146E-3,-7.996144E-3,-5.32899E-3,-1.0444247E-2,-7.866467E-3,-5.9657455E-3,-2.7637342E-3,-3.918722E-3,-1.0317739E-3,1.5904926E-3,-4.142788E-4,1.5893541E-3,3.4674369E-3,2.3476573E-4,2.8115266E-3,1.8560505E-4,5.0625587E-3,-2.991764E-3,-5.1382068E-3,-2.669097E-3,-0E0,-1.8752812E-3,5.214306E-4,6.6535984E-4,3.321974E-3,-3.0044585E-3,-7.794288E-4,-9.593299E-4,1.0557126E-3,-2.3338471E-4,1.8200584E-3,9.987456E-4,3.6780746E-3,1.1714374E-3,3.120917E-3,2.6720695E-3,5.341002E-3,3.3035215E-3,6.3420436E-3,8.076518E-3,2.2549692E-3,1.9802195E-3,5.127409E-3,3.8061433E-3,6.051644E-3,5.042988E-3,8.167083E-3,8.870159E-3,1.2495786E-2],"split_indices":[15,1,1,4,4,15,15,7,15,1,14,7,15,1,15,11,1,4,1,7,13,7,15,1,1,7,1,15,7,1,14,4,1,11,13,7,11,0,7,4,11,7,11,4,1,1,13,15,13,13,15,1,11,7,17,7,0,15,0,7,0,0,7,0,0,0,0,0,0,0,0,0,0,0,0,0,0,0,0,0,0,0,0,0,0,0,0,0,0,0,0,0,0,0,0,0,0,0,0,0,0,0,0,0,0,0,0,0,0,0,0,0,0,0,0,0,0,0,0],"split_type":[0,0,0,0,0,0,0,0,0,0,0,0,0,0,0,0,0,0,0,0,0,0,0,0,0,0,0,0,0,0,0,0,0,0,0,0,0,0,0,0,0,0,0,0,0,0,0,0,0,0,0,0,0,0,0,0,0,0,0,0,0,0,0,0,0,0,0,0,0,0,0,0,0,0,0,0,0,0,0,0,0,0,0,0,0,0,0,0,0,0,0,0,0,0,0,0,0,0,0,0,0,0,0,0,0,0,0,0,0,0,0,0,0,0,0,0,0,0,0],"sum_hessian":[3.635E3,2.096E3,1.539E3,1.066E3,1.03E3,7.63E2,7.76E2,2.89E2,7.77E2,3.27E2,7.03E2,4.49E2,3.14E2,4.51E2,3.25E2,2.08E2,8.1E1,4.98E2,2.79E2,2.13E2,1.14E2,4.06E2,2.97E2,2.24E2,2.25E2,1.51E2,1.63E2,2.18E2,2.33E2,1.96E2,1.29E2,1.42E2,6.6E1,4.2E1,3.9E1,2.19E2,2.79E2,1.6E2,1.19E2,1.35E2,7.8E1,6.1E1,5.3E1,2.71E2,1.35E2,1.51E2,1.46E2,1.44E2,8E1,1.73E2,5.2E1,9.9E1,5.2E1,1.01E2,6.2E1,1.33E2,8.5E1,1.07E2,1.26E2,8.3E1,1.13E2,7E0,1.22E2,6.7E1,7.5E1,3.8E1,2.8E1,2.4E1,1.8E1,2.1E1,1.8E1,1.07E2,1.12E2,1.41E2,1.38E2,1.34E2,2.6E1,7.7E1,4.2E1,5E1,8.5E1,3.7E1,4.1E1,1E1,5.1E1,3E0,5E1,1.38E2,1.33E2,7.3E1,6.2E1,6.6E1,8.5E1,7E1,7.6E1,1.03E2,4.1E1,5.3E1,2.7E1,1.28E2,4.5E1,1.8E1,3.4E1,6.3E1,3.6E1,2.2E1,3E1,5.3E1,4.8E1,5.8E1,4E0,1.06E2,2.7E1,6.7E1,4E1,4.8E1,3.5E1,3E1,9.2E1],"tree_param":{"num_deleted":"0","num_feature":"18","num_nodes":"119","size_leaf_vector":"1"}},{"base_weights":[1.4252702E-4,-5.221847E-2,9.2845485E-2,-1.0387121E-1,-6.1142943E-3,4.2619627E-2,1.3879293E-1,-1.3727134E-1,-6.6378504E-2,-3.454944E-2,3.4701414E-2,4.775646E-3,8.947965E-2,9.968933E-2,1.8102162E-1,-8.177438E-2,-1.6993774E-1,-9.096007E-2,-4.0566083E-2,2.4502749E-2,-6.264242E-2,9.112878E-3,6.309226E-2,-2.5894769E-2,3.0943122E-2,6.726146E-2,1.2091677E-1,7.1233876E-2,1.1798931E-1,1.5571919E-1,2.1681353E-1,-4.6493478E-2,-1.0415936E-1,-1.8511412E-1,-1.24921985E-1,-1.0388393E-1,-5.2043185E-2,-6.255975E-2,-8.625678E-3,5.648967E-2,-0E0,-9.4239764E-2,-4.43132E-2,-1.5280731E-2,3.929762E-2,2.1858389E-2,7.561177E-2,-3.998966E-2,6.4162426E-3,8.532842E-3,6.3130476E-2,4.418599E-2,9.794567E-2,8.507761E-2,1.397763E-1,4.4906843E-2,8.369605E-2,1.00595854E-1,7.4975467E-3,1.19424835E-1,8.549428E-3,9.178258E-3,1.21922325E-2,-3.4118553E-3,-1.0710229E-3,-6.10396E-3,-3.518514E-3,-1.0347701E-2,-7.7301636E-3,-7.304759E-3,-4.6797018E-3,-5.870679E-3,-3.8502242E-3,-3.1969298E-3,-9.589254E-4,-3.9507514E-3,-1.7943172E-3,-1.2950924E-3,4.7935973E-4,1.6673487E-3,4.364574E-3,-1.3877877E-3,1.4351442E-3,-5.8156108E-3,-3.4992422E-3,-3.0732907E-3,-4.0627815E-4,-1.8078125E-3,6.7883893E-4,8.608874E-4,3.3170865E-3,-0E0,2.0279237E-3,3.0367828E-3,5.2185482E-3,-2.6439305E-3,-1.0346005E-3,-4.8132084E-4,1.1179966E-3,-1.3177635E-4,1.6464262E-3,-0E0,3.3950217E-3,9.6825365E-4,2.7393943E-3,3.0771615E-3,5.8099814E-3,2.070098E-3,5.409812E-3,1.5239525E-3,7.1361377E-3,2.6211469E-4,2.8535335E-3,2.6729484E-3,4.741277E-3,4.120217E-3,5.980972E-3,3.8664807E-3,6.88437E-3],"categories":[],"categories_nodes":[],"categories_segments":[],"categories_sizes":[],"default_left":[0,0,0,0,0,0,0,0,0,0,0,0,0,0,0,0,0,0,0,0,0,0,0,0,0,0,0,0,0,0,0,0,0,0,0,0,0,0,0,0,0,0,0,0,0,0,0,0,0,0,0,0,0,0,0,0,0,0,0,0,0,0,0,0,0,0,0,0,0,0,0,0,0,0,0,0,0,0,0,0,0,0,0,0,0,0,0,0,0,0,0,0,0,0,0,0,0,0,0,0,0,0,0,0,0,0,0,0,0,0,0,0,0,0,0,0,0,0,0],"id":5,"left_children":[1,3,5,7,9,11,13,15,17,19,21,23,25,27,29,31,33,35,37,39,41,43,45,47,49,51,53,55,57,59,61,63,65,67,69,71,73,75,77,79,81,83,85,87,89,91,93,95,97,99,101,103,105,107,109,111,113,115,-1,117,-1,-1,-1,-1,-1,-1,-1,-1,-1,-1,-1,-1,-1,-1,-1,-1,-1,-1,-1,-1,-1,-1,-1,-1,-1,-1,-1,-1,-1,-1,-1,-1,-1,-1,-1,-1,-1,-1,-1,-1,-1,-1,-1,-1,-1,-1,-1,-1,-1,-1,-1,-1,-1,-1,-1,-1,-1,-1,-1],"loss_changes":[1.751736E1,5.47751E0,2.9829416E0,1.3304787E0,1.4171164E0,1.0985034E0,1.0751104E0,9.9790287E-1,3.0992985E-1,1.2014531E0,3.5544467E-1,2.8059953E-1,1.6722512E-1,1.5805459E-1,2.2240543E-1,1.4989102E-1,1.9044971E-1,1.10272646E-1,1.7147598E-1,1.7662792E-1,2.6575434E-1,1.9886194E-1,1.09913826E-1,7.602573E-2,1.2934723E-1,9.970379E-2,4.1324615E-2,3.0626476E-2,7.827234E-2,5.8606148E-2,2.9334068E-2,3.70031E-2,5.027306E-2,1.077652E-1,2.5372148E-2,4.1704893E-2,1.7436817E-2,5.1073074E-2,3.5547204E-2,5.5596083E-2,1.0763776E-1,6.7989945E-2,1.874451E-1,9.0701476E-2,6.275459E-2,1.9992927E-2,5.3303123E-2,1.9654855E-2,1.3510219E-2,3.444898E-2,1.9838095E-2,1.7575458E-2,2.0924091E-2,2.397862E-2,8.724928E-4,1.8075623E-2,1.1735439E-2,1.9428134E-2,0E0,1.6283274E-2,0E0,0E0,0E0,0E0,0E0,0E0,0E0,0E0,0E0,0E0,0E0,0E0,0E0,0E0,0E0,0E0,0E0,0E0,0E0,0E0,0E0,0E0,0E0,0E0,0E0,0E0,0E0,0E0,0E0,0E0,0E0,0E0,0E0,0E0,0E0,0E0,0E0,0E0,0E0,0E0,0E0,0E0,0E0,0E0,0E0,0E0,0E0,0E0,0E0,0E0,0E0,0E0,0E0,0E0,0E0,0E0,0E0,0E0,0E0],"parents":[2147483647,0,0,1,1,2,2,3,3,4,4,5,5,6,6,7,7,8,8,9,9,10,10,11,11,12,12,13,13,14,14,15,15,16,16,17,17,18,18,19,19,20,20,21,21,22,22,23,23,24,24,25,25,26,26,27,27,28,28,29,29,30,30,31,31,32,32,33,33,34,34,35,35,36,36,37,37,38,38,39,39,40,40,41,41,42,42,43,43,44,44,45,45,46,46,47,47,48,48,49,49,50,50,51,51,52,52,53,53,54,54,55,55,56,56,57,57,59,59],"right_children":[2,4,6,8,10,12,14,16,18,20,22,24,26,28,30,32,34,36,38,40,42,44,46,48,50,52,54,56,58,60,62,64,66,68,70,72,74,76,78,80,82,84,86,88,90,92,94,96,98,100,102,104,106,108,110,112,114,116,-1,118,-1,-1,-1,-1,-1,-1,-1,-1,-1,-1,-1,-1,-1,-1,-1,-1,-1,-1,-1,-1,-1,-1,-1,-1,-1,-1,-1,-1,-1,-1,-1,-1,-1,-1,-1,-1,-1,-1,-1,-1,-1,-1,-1,-1,-1,-1,-1,-1,-1,-1,-1,-1,-1,-1,-1,-1,-1,-1,-1],"split_conditions":[3.205879E-1,-9.682093E-2,-9.682093E-2,-5.468193E-1,-4.0347224E-1,1.0508292E0,9.593724E-1,1.0318401E-1,-3.8648827E-3,-5.8910944E-3,8.304859E-1,-1.9989988E-1,1.6672633E0,6.853971E-1,1.6672633E0,-8.083722E-1,7.4708384E-1,7.168512E-1,1.473543E-1,-7.694168E-1,6.22315E-1,1.9138178E-1,-8.599464E-1,5.5183715E-1,2.514577E-1,4.946085E-1,-4.3941513E-1,-7.37381E-1,4.767423E-1,4.961508E-1,-1.9327706E-2,-1.2401668E-1,3.1153357E-1,2.0291498E-1,2.1680515E-1,-7.276419E-1,8.400396E-2,-1.4196883E-2,-8.285732E-1,4.6682817E-1,7.8632843E-1,8.45263E-3,5.217992E-1,3.140363E-1,2.3069532E-1,-1.5822938E-1,8.2797253E-1,6.567146E-1,-1.0178195E0,7.9024136E-1,3.8136375E-1,-4.2439616E-1,2.6173066E-2,-3.249114E-1,-1.673182E0,-4.6381307E-1,-8.2495743E-1,-1.3044904E-1,7.4975467E-3,-4.2214257E-1,8.549428E-3,9.178258E-3,1.21922325E-2,-3.4118553E-3,-1.0710229E-3,-6.10396E-3,-3.518514E-3,-1.0347701E-2,-7.7301636E-3,-7.304759E-3,-4.6797018E-3,-5.870679E-3,-3.8502242E-3,-3.1969298E-3,-9.589254E-4,-3.9507514E-3,-1.7943172E-3,-1.2950924E-3,4.7935973E-4,1.6673487E-3,4.364574E-3,-1.3877877E-3,1.4351442E-3,-5.8156108E-3,-3.4992422E-3,-3.0732907E-3,-4.0627815E-4,-1.8078125E-3,6.7883893E-4,8.608874E-4,3.3170865E-3,-0E0,2.0279237E-3,3.0367828E-3,5.2185482E-3,-2.6439305E-3,-1.0346005E-3,-4.8132084E-4,1.1179966E-3,-1.3177635E-4,1.6464262E-3,-0E0,3.3950217E-3,9.6825365E-4,2.7393943E-3,3.0771615E-3,5.8099814E-3,2.070098E-3,5.409812E-3,1.5239525E-3,7.1361377E-3,2.6211469E-4,2.8535335E-3,2.6729484E-3,4.741277E-3,4.120217E-3,5.980972E-3,3.8664807E-3,6.88437E-3],"split_indices":[15,1,1,15,15,15,15,4,5,4,1,7,15,1,15,4,5,7,7,4,1,5,5,5,5,7,5,13,5,1,7,5,5,7,7,1,15,15,1,7,1,7,5,7,7,7,7,15,1,15,15,5,5,7,4,7,7,7,0,7,0,0,0,0,0,0,0,0,0,0,0,0,0,0,0,0,0,0,0,0,0,0,0,0,0,0,0,0,0,0,0,0,0,0,0,0,0,0,0,0,0,0,0,0,0,0,0,0,0,0,0,0,0,0,0,0,0,0,0],"split_type":[0,0,0,0,0,0,0,0,0,0,0,0,0,0,0,0,0,0,0,0,0,0,0,0,0,0,0,0,0,0,0,0,0,0,0,0,0,0,0,0,0,0,0,0,0,0,0,0,0,0,0,0,0,0,0,0,0,0,0,0,0,0,0,0,0,0,0,0,0,0,0,0,0,0,0,0,0,0,0,0,0,0,0,0,0,0,0,0,0,0,0,0,0,0,0,0,0,0,0,0,0,0,0,0,0,0,0,0,0,0,0,0,0,0,0,0,0,0,0],"sum_hessian":[3.606E3,2.304E3,1.302E3,1.085E3,1.219E3,6.24E2,6.78E2,5.71E2,5.14E2,7.2E2,4.99E2,3.47E2,2.77E2,3.55E2,3.23E2,2.14E2,3.57E2,2.6E2,2.54E2,2.31E2,4.89E2,2.65E2,2.34E2,1.58E2,1.89E2,1.66E2,1.11E2,1.43E2,2.12E2,1.94E2,1.29E2,8.6E1,1.28E2,2.63E2,9.4E1,1.92E2,6.8E1,1.48E2,1.06E2,9.8E1,1.33E2,1.76E2,3.13E2,1.45E2,1.2E2,5.7E1,1.77E2,1.12E2,4.6E1,1.14E2,7.5E1,9.8E1,6.8E1,4.2E1,6.9E1,5E1,9.3E1,1.42E2,7E1,6.2E1,1.32E2,6.3E1,6.6E1,4.3E1,4.3E1,8E1,4.8E1,1.48E2,1.15E2,5.2E1,4.2E1,1.23E2,6.9E1,4.7E1,2.1E1,8.8E1,6E1,5.7E1,4.9E1,5.9E1,3.9E1,6.6E1,6.7E1,8.8E1,8.8E1,2.1E2,1.03E2,8.6E1,5.9E1,6.9E1,5.1E1,2.9E1,2.8E1,1.21E2,5.6E1,6.3E1,4.9E1,2E1,2.6E1,7.6E1,3.8E1,6E0,6.9E1,3.3E1,6.5E1,2.6E1,4.2E1,1.7E1,2.5E1,3E0,6.6E1,1.4E1,3.6E1,2.9E1,6.4E1,7.8E1,6.4E1,2.2E1,4E1],"tree_param":{"num_deleted":"0","num_feature":"18","num_nodes":"119","size_leaf_vector":"1"}},{"base_weights":[-5.512113E-4,-6.3326366E-2,7.0244566E-2,-1.1721259E-1,-2.0083386E-2,1.5051941E-2,1.0845868E-1,-6.532925E-2,-1.395703E-1,2.1787114E-2,-5.0207663E-2,-1.9833792E-2,6.7750186E-2,7.278414E-2,1.650123E-1,-8.683991E-2,-3.562036E-2,-1.6436277E-1,-1.03431925E-1,-1.0426966E-2,4.17514E-2,-6.906326E-2,1.1512902E-2,-3.0827511E-2,1.0878184E-2,4.221675E-2,9.949397E-2,4.939996E-2,1.0459491E-1,1.292334E-1,1.9104114E-1,-5.428186E-2,-9.881793E-2,-8.082207E-3,-5.0599225E-2,-1.858757E-1,-1.318243E-1,-1.2470618E-1,-7.9575986E-2,-3.799106E-2,6.365823E-3,6.746498E-2,1.7542914E-2,-9.363506E-2,-4.9780734E-2,-8.937566E-3,4.3714244E-2,-4.3891203E-2,-2.0854848E-3,-6.760657E-3,3.192695E-2,2.5889682E-2,7.18795E-2,5.3953357E-2,1.13469586E-1,3.5557497E-2,8.047527E-2,8.511725E-2,1.246307E-1,1.07226975E-1,8.551941E-3,1.6808185E-1,1.1257732E-2,-2.9832656E-3,-0E0,-5.5423225E-3,-3.25824E-3,-1.5528392E-3,2.1439847E-4,-2.9451756E-3,-3.0159162E-4,-1.0028317E-2,-7.8300135E-3,-5.770379E-3,-7.6741152E-3,-6.891048E-3,-4.8053055E-3,-4.300208E-3,-1.4843699E-3,-6.8694894E-4,-2.593229E-3,1.9276369E-3,-4.6486678E-4,2.1480601E-3,4.507317E-3,-1.5155108E-4,1.8268153E-3,-5.566371E-3,-3.2259685E-3,-3.506722E-3,-1.438972E-3,6.923071E-4,-1.4910562E-3,-0E0,2.409605E-3,-2.6051856E-3,-9.2953315E-4,-8.39239E-4,1.0867532E-3,-1.0693701E-3,3.2898528E-4,-0E0,2.0388325E-3,5.812094E-4,2.5065604E-3,3.7859175E-3,-0E0,2.8960744E-3,4.705779E-5,4.495835E-3,6.8493024E-3,3.992646E-4,2.5688948E-3,5.5511954E-4,4.1748206E-3,3.3088939E-3,5.350908E-3,4.927033E-3,6.840138E-3,4.1578515E-3,6.4639854E-3,7.0420294E-3,9.234416E-3],"categories":[],"categories_nodes":[],"categories_segments":[],"categories_sizes":[],"default_left":[0,0,0,0,0,0,0,0,0,0,0,0,0,0,0,0,0,0,0,0,0,0,0,0,0,0,0,0,0,0,0,0,0,0,0,0,0,0,0,0,0,0,0,0,0,0,0,0,0,0,0,0,0,0,0,0,0,0,0,0,0,0,0,0,0,0,0,0,0,0,0,0,0,0,0,0,0,0,0,0,0,0,0,0,0,0,0,0,0,0,0,0,0,0,0,0,0,0,0,0,0,0,0,0,0,0,0,0,0,0,0,0,0,0,0,0,0,0,0,0,0,0,0],"id":6,"left_children":[1,3,5,7,9,11,13,15,17,19,21,23,25,27,29,31,33,35,37,39,41,43,45,47,49,51,53,55,57,59,61,63,65,67,69,71,73,75,77,79,81,83,85,87,89,91,93,95,97,99,101,103,105,107,109,111,113,115,117,119,-1,121,-1,-1,-1,-1,-1,-1,-1,-1,-1,-1,-1,-1,-1,-1,-1,-1,-1,-1,-1,-1,-1,-1,-1,-1,-1,-1,-1,-1,-1,-1,-1,-1,-1,-1,-1,-1,-1,-1,-1,-1,-1,-1,-1,-1,-1,-1,-1,-1,-1,-1,-1,-1,-1,-1,-1,-1,-1,-1,-1,-1,-1],"loss_changes":[1.5949603E1,4.4182887E0,3.5420227E0,9.5174503E-1,1.3384111E0,1.2783198E0,1.9716473E0,1.4953768E-1,4.8394203E-1,2.8783172E-1,7.246014E-1,1.4278805E-1,2.0614469E-1,4.354248E-1,2.999649E-1,3.665316E-2,3.992182E-2,1.8592548E-1,9.3482256E-2,8.116787E-2,1.6149959E-1,2.0558143E-1,9.869704E-2,1.1133319E-1,4.2830266E-2,6.439817E-2,5.4147124E-2,1.3910186E-1,6.871152E-2,1.0655141E-1,9.357405E-2,1.6311035E-2,1.7274499E-2,1.5030634E-2,1.9058198E-2,2.0609856E-2,6.2422752E-3,1.024735E-2,2.4360776E-2,1.4933556E-2,5.5211302E-2,5.562353E-2,6.0122754E-2,8.0833316E-2,1.0350275E-1,4.340543E-2,1.2257129E-2,3.5595894E-2,3.488432E-2,1.274368E-2,1.6829718E-2,2.9552542E-2,7.0970356E-3,7.907152E-4,1.4841676E-2,1.03140384E-1,1.2038708E-2,3.2009542E-2,1.7282963E-3,2.7987123E-2,0E0,2.9594898E-3,0E0,0E0,0E0,0E0,0E0,0E0,0E0,0E0,0E0,0E0,0E0,0E0,0E0,0E0,0E0,0E0,0E0,0E0,0E0,0E0,0E0,0E0,0E0,0E0,0E0,0E0,0E0,0E0,0E0,0E0,0E0,0E0,0E0,0E0,0E0,0E0,0E0,0E0,0E0,0E0,0E0,0E0,0E0,0E0,0E0,0E0,0E0,0E0,0E0,0E0,0E0,0E0,0E0,0E0,0E0,0E0,0E0,0E0,0E0,0E0,0E0],"parents":[2147483647,0,0,1,1,2,2,3,3,4,4,5,5,6,6,7,7,8,8,9,9,10,10,11,11,12,12,13,13,14,14,15,15,16,16,17,17,18,18,19,19,20,20,21,21,22,22,23,23,24,24,25,25,26,26,27,27,28,28,29,29,30,30,31,31,32,32,33,33,34,34,35,35,36,36,37,37,38,38,39,39,40,40,41,41,42,42,43,43,44,44,45,45,46,46,47,47,48,48,49,49,50,50,51,51,52,52,53,53,54,54,55,55,56,56,57,57,58,58,59,59,61,61],"right_children":[2,4,6,8,10,12,14,16,18,20,22,24,26,28,30,32,34,36,38,40,42,44,46,48,50,52,54,56,58,60,62,64,66,68,70,72,74,76,78,80,82,84,86,88,90,92,94,96,98,100,102,104,106,108,110,112,114,116,118,120,-1,122,-1,-1,-1,-1,-1,-1,-1,-1,-1,-1,-1,-1,-1,-1,-1,-1,-1,-1,-1,-1,-1,-1,-1,-1,-1,-1,-1,-1,-1,-1,-1,-1,-1,-1,-1,-1,-1,-1,-1,-1,-1,-1,-1,-1,-1,-1,-1,-1,-1,-1,-1,-1,-1,-1,-1,-1,-1,-1,-1,-1,-1],"split_conditions":[2.6667258E-2,-1.9775228E-1,-2.9237542E-1,-1.5392159E-1,2.2784127E-1,9.424558E-1,9.593724E-1,5.660648E-1,-7.082407E-1,4.7091794E-1,4.7996604E-1,6.567146E-1,1.4776899E0,8.6202693E-1,5.150754E-1,-1.0810599E0,-1.2135082E0,7.90607E-1,-9.3581283E-1,-3.0409285E-1,-6.837149E-1,5.8446574E-1,8.6902094E-1,-5.1849373E-2,4.739326E-2,2.8979748E-1,2.819116E-1,6.0561115E-1,4.4741046E-1,1.7923371E0,1.7043777E0,-2.9237542E-1,-8.809122E-1,-1.1629083E0,-5.383956E-1,-8.285732E-1,9.212473E-1,-2.265361E-1,-4.687462E-2,-7.304614E-1,-1.0498956E0,4.0416893E-1,-3.283333E-1,-7.183361E-1,4.739326E-2,-2.592604E-1,-7.8688174E-1,-6.8979263E-1,-7.4025834E-1,-9.728877E-1,-1.3381655E0,-8.837039E-1,3.269822E-1,-2.94102E-3,-4.587491E-1,-6.213956E-1,-2.4190974E-1,-3.1092393E-1,-3.5257372E-1,-4.8005715E-1,8.551941E-3,-6.488E-1,1.1257732E-2,-2.9832656E-3,-0E0,-5.5423225E-3,-3.25824E-3,-1.5528392E-3,2.1439847E-4,-2.9451756E-3,-3.0159162E-4,-1.0028317E-2,-7.8300135E-3,-5.770379E-3,-7.6741152E-3,-6.891048E-3,-4.8053055E-3,-4.300208E-3,-1.4843699E-3,-6.8694894E-4,-2.593229E-3,1.9276369E-3,-4.6486678E-4,2.1480601E-3,4.507317E-3,-1.5155108E-4,1.8268153E-3,-5.566371E-3,-3.2259685E-3,-3.506722E-3,-1.438972E-3,6.923071E-4,-1.4910562E-3,-0E0,2.409605E-3,-2.6051856E-3,-9.2953315E-4,-8.39239E-4,1.0867532E-3,-1.0693701E-3,3.2898528E-4,-0E0,2.0388325E-3,5.812094E-4,2.5065604E-3,3.7859175E-3,-0E0,2.8960744E-3,4.705779E-5,4.495835E-3,6.8493024E-3,3.992646E-4,2.5688948E-3,5.5511954E-4,4.1748206E-3,3.3088939E-3,5.350908E-3,4.927033E-3,6.840138E-3,4.1578515E-3,6.4639854E-3,7.0420294E-3,9.234416E-3],"split_indices":[15,1,1,4,4,15,15,13,15,1,14,15,15,1,1,4,4,13,1,11,4,1,14,13,11,11,14,15,15,15,15,1,14,1,1,1,4,15,15,4,4,13,11,15,11,9,13,1,1,8,4,8,17,9,13,13,1,13,11,13,0,13,0,0,0,0,0,0,0,0,0,0,0,0,0,0,0,0,0,0,0,0,0,0,0,0,0,0,0,0,0,0,0,0,0,0,0,0,0,0,0,0,0,0,0,0,0,0,0,0,0,0,0,0,0,0,0,0,0,0,0,0,0],"split_type":[0,0,0,0,0,0,0,0,0,0,0,0,0,0,0,0,0,0,0,0,0,0,0,0,0,0,0,0,0,0,0,0,0,0,0,0,0,0,0,0,0,0,0,0,0,0,0,0,0,0,0,0,0,0,0,0,0,0,0,0,0,0,0,0,0,0,0,0,0,0,0,0,0,0,0,0,0,0,0,0,0,0,0,0,0,0,0,0,0,0,0,0,0,0,0,0,0,0,0,0,0,0,0,0,0,0,0,0,0,0,0,0,0,0,0,0,0,0,0,0,0,0,0],"sum_hessian":[3.587E3,1.902E3,1.685E3,8.45E2,1.057E3,6.91E2,9.94E2,2.57E2,5.88E2,4.41E2,6.16E2,4.15E2,2.76E2,6.12E2,3.82E2,1.46E2,1.11E2,3.45E2,2.43E2,1.67E2,2.74E2,4.73E2,1.43E2,3.08E2,1.07E2,1.56E2,1.2E2,3.56E2,2.56E2,1.65E2,2.17E2,4.3E1,1.03E2,4.2E1,6.9E1,2.03E2,1.42E2,1.24E2,1.19E2,6.5E1,1.02E2,1.3E2,1.44E2,2.04E2,2.69E2,8.6E1,5.7E1,2.09E2,9.9E1,5.6E1,5.1E1,1.04E2,5.2E1,3.1E1,8.9E1,2.5E2,1.06E2,1.35E2,1.21E2,1.12E2,5.3E1,1.35E2,8.2E1,4E1,3E0,7.2E1,3.1E1,1.7E1,2.5E1,5.6E1,1.3E1,1.29E2,7.4E1,8.7E1,5.5E1,8E1,4.4E1,1.03E2,1.6E1,2.7E1,3.8E1,3.5E1,6.7E1,6.6E1,6.4E1,6.7E1,7.7E1,1.23E2,8.1E1,1.33E2,1.36E2,3.9E1,4.7E1,5E0,5.2E1,1.54E2,5.5E1,6.4E1,3.5E1,3E1,2.6E1,1E1,4.1E1,6.9E1,3.5E1,4.8E1,4E0,2.7E1,4E0,4.9E1,4E1,9.4E1,1.56E2,6E0,1E2,7.7E1,5.8E1,4.4E1,7.7E1,5.8E1,5.4E1,5.7E1,7.8E1],"tree_param":{"num_deleted":"0","num_feature":"18","num_nodes":"123","size_leaf_vector":"1"}},{"base_weights":[1.2260934E-3,-5.4999877E-2,7.358431E-2,-1.05963655E-1,-1.6101146E-2,2.1054288E-2,1.1416039E-1,-1.2953384E-1,-7.409463E-2,-3.8948447E-2,1.2992039E-2,-1.2645324E-2,7.1101554E-2,7.842613E-2,1.624403E-1,-1.4352939E-1,-7.63507E-2,-8.831298E-2,-3.1110592E-2,-6.355764E-2,-7.812604E-3,-1.9174214E-2,3.127286E-2,-2.6475368E-2,1.6134128E-2,5.329828E-2,1.1129604E-1,5.5456415E-2,1.06112845E-1,1.3776495E-1,1.9843718E-1,-1.6463017E-1,-1.2749448E-1,-9.9943005E-2,-3.603806E-2,-9.5917575E-2,-5.271741E-2,-4.0242102E-2,-0E0,-8.9305684E-2,-4.5917608E-2,-3.4852836E-2,3.4962296E-2,-3.2552876E-2,3.1432785E-2,7.1706437E-3,5.2089535E-2,-3.8116284E-2,-6.5239175E-4,-0E0,5.030331E-2,3.6046542E-2,7.734459E-2,2.9238954E-3,6.2774094E-3,3.6456615E-2,7.526902E-2,8.475356E-2,1.2812862E-1,1.0607373E-1,1.6222993E-1,7.7801915E-3,1.0643073E-2,-9.090273E-3,-7.0517533E-3,-3.8167413E-3,-7.105314E-3,-5.852515E-3,-3.6089625E-3,-0E0,-2.6554747E-3,-5.7635955E-3,-3.7687426E-3,-2.7788633E-3,-0E0,-2.0319909E-4,-2.6647982E-3,1.7834507E-4,-2.9485254E-4,-5.6188176E-3,-3.5034672E-3,-3.6048708E-3,-1.3082711E-3,-2.50494E-3,1.21654644E-4,2.7246415E-3,3.0549383E-4,-2.3364301E-3,-2.842224E-4,4.433245E-4,2.578873E-3,-6.03163E-4,1.367404E-3,1.5602199E-3,3.3442606E-3,-2.6238286E-3,-7.1903196E-4,-7.1869727E-4,7.3509687E-4,-6.3890446E-4,1.2845632E-3,2.7608564E-3,1.7801794E-4,9.7244745E-4,2.6906556E-3,-0E0,3.995085E-3,4.7487515E-4,2.9338559E-3,2.945896E-3,4.5590457E-3,2.6084192E-3,4.5791524E-3,2.1534243E-3,6.5421197E-3,3.926166E-3,6.509551E-3,6.7035714E-3,8.95408E-3],"categories":[],"categories_nodes":[],"categories_segments":[],"categories_sizes":[],"default_left":[0,0,0,0,0,0,0,0,0,0,0,0,0,0,0,0,0,0,0,0,0,0,0,0,0,0,0,0,0,0,0,0,0,0,0,0,0,0,0,0,0,0,0,0,0,0,0,0,0,0,0,0,0,0,0,0,0,0,0,0,0,0,0,0,0,0,0,0,0,0,0,0,0,0,0,0,0,0,0,0,0,0,0,0,0,0,0,0,0,0,0,0,0,0,0,0,0,0,0,0,0,0,0,0,0,0,0,0,0,0,0,0,0,0,0,0,0,0,0],"id":7,"left_children":[1,3,5,7,9,11,13,15,17,19,21,23,25,27,29,31,33,35,37,39,41,43,45,47,49,51,53,55,57,59,61,63,65,67,69,71,73,75,77,79,81,83,85,87,89,91,93,95,97,99,101,103,105,-1,-1,107,109,111,113,115,117,-1,-1,-1,-1,-1,-1,-1,-1,-1,-1,-1,-1,-1,-1,-1,-1,-1,-1,-1,-1,-1,-1,-1,-1,-1,-1,-1,-1,-1,-1,-1,-1,-1,-1,-1,-1,-1,-1,-1,-1,-1,-1,-1,-1,-1,-1,-1,-1,-1,-1,-1,-1,-1,-1,-1,-1,-1,-1],"loss_changes":[1.4676596E1,4.0084314E0,3.3475218E0,6.2880516E-1,7.695017E-1,1.1704804E0,1.4969177E0,3.39962E-1,2.1571827E-1,4.8888218E-1,2.9935035E-1,1.6544595E-1,1.7725933E-1,3.048396E-1,2.730198E-1,8.310795E-2,8.55155E-2,5.6144E-2,2.7573705E-2,1.4588773E-1,3.3547747E-1,1.24359064E-1,1.567621E-1,8.056776E-2,7.191684E-2,6.7596436E-2,3.6735535E-2,9.336752E-2,7.600784E-2,1.3273525E-1,2.2089481E-2,8.536339E-3,1.3998866E-1,3.9759874E-3,2.595203E-2,6.2897444E-2,4.3688416E-3,2.9467225E-2,5.038187E-4,3.734398E-2,1.0101685E-1,1.0664281E-1,5.6155622E-2,5.0101444E-2,1.0318149E-2,6.1624374E-2,4.1253597E-2,5.766207E-2,1.9350883E-2,3.0421324E-2,3.572479E-3,2.6718184E-2,1.261276E-2,0E0,0E0,8.2482025E-2,1.5002012E-2,7.997036E-3,2.1346807E-3,3.800738E-2,3.9896965E-3,0E0,0E0,0E0,0E0,0E0,0E0,0E0,0E0,0E0,0E0,0E0,0E0,0E0,0E0,0E0,0E0,0E0,0E0,0E0,0E0,0E0,0E0,0E0,0E0,0E0,0E0,0E0,0E0,0E0,0E0,0E0,0E0,0E0,0E0,0E0,0E0,0E0,0E0,0E0,0E0,0E0,0E0,0E0,0E0,0E0,0E0,0E0,0E0,0E0,0E0,0E0,0E0,0E0,0E0,0E0,0E0,0E0,0E0],"parents":[2147483647,0,0,1,1,2,2,3,3,4,4,5,5,6,6,7,7,8,8,9,9,10,10,11,11,12,12,13,13,14,14,15,15,16,16,17,17,18,18,19,19,20,20,21,21,22,22,23,23,24,24,25,25,26,26,27,27,28,28,29,29,30,30,31,31,32,32,33,33,34,34,35,35,36,36,37,37,38,38,39,39,40,40,41,41,42,42,43,43,44,44,45,45,46,46,47,47,48,48,49,49,50,50,51,51,52,52,55,55,56,56,57,57,58,58,59,59,60,60],"right_children":[2,4,6,8,10,12,14,16,18,20,22,24,26,28,30,32,34,36,38,40,42,44,46,48,50,52,54,56,58,60,62,64,66,68,70,72,74,76,78,80,82,84,86,88,90,92,94,96,98,100,102,104,106,-1,-1,108,110,112,114,116,118,-1,-1,-1,-1,-1,-1,-1,-1,-1,-1,-1,-1,-1,-1,-1,-1,-1,-1,-1,-1,-1,-1,-1,-1,-1,-1,-1,-1,-1,-1,-1,-1,-1,-1,-1,-1,-1,-1,-1,-1,-1,-1,-1,-1,-1,-1,-1,-1,-1,-1,-1,-1,-1,-1,-1,-1,-1,-1],"split_conditions":[1.3257402E-1,-1.9775228E-1,-2.4190974E-1,-5.9627056E-1,-5.6904113E-1,9.772532E-1,9.593724E-1,1.5734766E0,8.672356E-1,1.5066868E0,4.5199332E-1,-6.8979263E-1,1.7923371E0,8.746434E-1,1.6672633E0,-1.0690151E0,-1.1764495E0,-4.53521E-1,2.6667258E-2,-9.773819E-1,-1.162716E0,5.86496E-1,-2.4185197E-1,6.567146E-1,6.870079E-1,3.019177E-1,3.2640603E-1,4.924417E-1,1.1154092E-2,6.5385604E-1,1.287377E0,-1.15646355E-1,-1.0310073E0,-1.3626999E0,-1.4564555E0,-1.997059E-1,9.927697E-1,-5.3656757E-1,1.061722E-1,-4.0105456E-1,5.688121E-1,2.0671053E0,-1.1919876E0,-1.5280402E-1,-2.8948656E-1,-2.0693225E-1,8.746434E-1,3.2655254E-1,2.6173066E-2,5.948636E-1,1.1542627E0,-8.853471E-1,-1.724339E0,2.9238954E-3,6.2774094E-3,5.6211013E-2,1.3130589E-1,1.1017389E0,-5.904886E-1,1.01267934E-1,-6.488E-1,7.7801915E-3,1.0643073E-2,-9.090273E-3,-7.0517533E-3,-3.8167413E-3,-7.105314E-3,-5.852515E-3,-3.6089625E-3,-0E0,-2.6554747E-3,-5.7635955E-3,-3.7687426E-3,-2.7788633E-3,-0E0,-2.0319909E-4,-2.6647982E-3,1.7834507E-4,-2.9485254E-4,-5.6188176E-3,-3.5034672E-3,-3.6048708E-3,-1.3082711E-3,-2.50494E-3,1.21654644E-4,2.7246415E-3,3.0549383E-4,-2.3364301E-3,-2.842224E-4,4.433245E-4,2.578873E-3,-6.03163E-4,1.367404E-3,1.5602199E-3,3.3442606E-3,-2.6238286E-3,-7.1903196E-4,-7.1869727E-4,7.3509687E-4,-6.3890446E-4,1.2845632E-3,2.7608564E-3,1.7801794E-4,9.7244745E-4,2.6906556E-3,-0E0,3.995085E-3,4.7487515E-4,2.9338559E-3,2.945896E-3,4.5590457E-3,2.6084192E-3,4.5791524E-3,2.1534243E-3,6.5421197E-3,3.926166E-3,6.509551E-3,6.7035714E-3,8.95408E-3],"split_indices":[15,1,1,15,15,15,15,13,5,8,1,1,15,1,15,15,15,8,15,15,15,13,13,15,5,11,14,15,5,1,14,8,0,15,0,15,11,0,10,11,8,13,0,15,15,15,1,5,5,15,3,1,1,0,0,5,5,1,16,5,13,0,0,0,0,0,0,0,0,0,0,0,0,0,0,0,0,0,0,0,0,0,0,0,0,0,0,0,0,0,0,0,0,0,0,0,0,0,0,0,0,0,0,0,0,0,0,0,0,0,0,0,0,0,0,0,0,0,0],"split_type":[0,0,0,0,0,0,0,0,0,0,0,0,0,0,0,0,0,0,0,0,0,0,0,0,0,0,0,0,0,0,0,0,0,0,0,0,0,0,0,0,0,0,0,0,0,0,0,0,0,0,0,0,0,0,0,0,0,0,0,0,0,0,0,0,0,0,0,0,0,0,0,0,0,0,0,0,0,0,0,0,0,0,0,0,0,0,0,0,0,0,0,0,0,0,0,0,0,0,0,0,0,0,0,0,0,0,0,0,0,0,0,0,0,0,0,0,0,0,0],"sum_hessian":[3.605E3,2.028E3,1.577E3,8.76E2,1.152E3,6.89E2,8.88E2,5E2,3.76E2,6.47E2,5.05E2,4.11E2,2.78E2,5.13E2,3.75E2,3.93E2,1.07E2,2.8E2,9.6E1,3.59E2,2.88E2,1.81E2,3.24E2,2.8E2,1.31E2,1.96E2,8.2E1,2.84E2,2.29E2,2.27E2,1.48E2,1.63E2,2.3E2,6.5E1,4.2E1,2.27E2,5.3E1,7.4E1,2.2E1,1.42E2,2.17E2,1.78E2,1.1E2,1.45E2,3.6E1,1.53E2,1.71E2,1.9E2,9E1,9E1,4.1E1,1.18E2,7.8E1,2E1,6.2E1,1.49E2,1.35E2,1.21E2,1.08E2,1.03E2,1.24E2,4.2E1,1.06E2,8.8E1,7.5E1,5.4E1,1.76E2,3.6E1,2.9E1,1.4E1,2.8E1,1.12E2,1.15E2,4.9E1,4E0,2.2E1,5.2E1,1.4E1,8E0,6E1,8.2E1,9E1,1.27E2,1.28E2,5E1,6.3E1,4.7E1,9.2E1,5.3E1,2E1,1.6E1,7.6E1,7.7E1,7.5E1,9.6E1,1.15E2,7.5E1,5.1E1,3.9E1,6E1,3E1,3.5E1,6E0,6.5E1,5.3E1,3E0,7.5E1,7E1,7.9E1,7.2E1,6.3E1,2.5E1,9.6E1,5E0,1.03E2,5.2E1,5.1E1,5.2E1,7.2E1],"tree_param":{"num_deleted":"0","num_feature":"18","num_nodes":"119","size_leaf_vector":"1"}},{"base_weights":[-2.8748903E-4,-5.2354652E-2,6.9216944E-2,-8.706314E-2,-3.3910265E-3,2.526906E-2,1.1143988E-1,-5.036312E-2,-1.1284168E-1,3.0810006E-2,-2.8977612E-2,-5.729036E-3,7.807693E-2,7.6585665E-2,1.5325843E-1,-7.059975E-2,-1.9815745E-2,-1.469396E-1,-7.8816146E-2,5.8008667E-2,1.2041763E-2,-5.6866575E-2,9.028258E-3,-2.8661475E-2,2.2228092E-2,4.8244372E-2,1.02260955E-1,5.0080687E-2,9.288398E-2,1.2997292E-1,1.899459E-1,-3.5288997E-2,-8.445233E-2,-3.98638E-2,5.188097E-3,-1.6470394E-1,-1.2148912E-1,-9.4383694E-2,-4.2563897E-2,4.005726E-2,7.972074E-2,-1.6345939E-2,2.909435E-2,-7.103956E-2,-2.303374E-2,-5.494668E-3,4.492893E-2,-4.4034224E-2,-2.2737011E-3,-3.5422991E-3,3.807552E-2,3.2685377E-2,7.289781E-2,6.149319E-2,1.162317E-1,3.0713597E-2,6.9992654E-2,7.6245725E-2,1.1799081E-1,9.720118E-2,1.5002301E-1,1.5595908E-1,1.0702195E-2,-2.3797064E-3,-0E0,-4.875723E-3,-2.4832345E-3,-4.0067948E-4,-2.7705198E-3,1.2796827E-3,-1.2084434E-3,-9.306532E-3,-6.889218E-3,-4.752242E-3,-6.895195E-3,-5.273377E-3,-2.5977602E-3,-2.9567021E-3,-1.7849236E-5,1.137144E-3,2.9600894E-3,2.7790584E-4,4.2147054E-3,-1.3741149E-3,5.1117456E-4,5.278151E-4,2.3821215E-3,-4.1171196E-3,-2.0907803E-3,-2.1348754E-3,-0E0,-1.1149116E-3,1.2775104E-3,-0E0,2.8196815E-3,-2.7897905E-3,-9.17954E-4,-9.13769E-4,8.704693E-4,-1.0201143E-3,7.426651E-4,8.985481E-4,3.302386E-3,5.984707E-4,2.2944824E-3,1.6892847E-3,4.0566227E-3,1.45922E-3,3.8824768E-3,4.8247855E-3,7.317535E-3,-0E0,2.26846E-3,2.688498E-3,4.7314367E-3,3.060649E-3,4.9493033E-3,4.397785E-3,6.490131E-3,3.3109493E-3,5.6245173E-3,6.135838E-3,8.231156E-3,1.9073676E-3,8.090147E-3],"categories":[],"categories_nodes":[],"categories_segments":[],"categories_sizes":[],"default_left":[0,0,0,0,0,0,0,0,0,0,0,0,0,0,0,0,0,0,0,0,0,0,0,0,0,0,0,0,0,0,0,0,0,0,0,0,0,0,0,0,0,0,0,0,0,0,0,0,0,0,0,0,0,0,0,0,0,0,0,0,0,0,0,0,0,0,0,0,0,0,0,0,0,0,0,0,0,0,0,0,0,0,0,0,0,0,0,0,0,0,0,0,0,0,0,0,0,0,0,0,0,0,0,0,0,0,0,0,0,0,0,0,0,0,0,0,0,0,0,0,0,0,0,0,0],"id":8,"left_children":[1,3,5,7,9,11,13,15,17,19,21,23,25,27,29,31,33,35,37,39,41,43,45,47,49,51,53,55,57,59,61,63,65,67,69,71,73,75,77,79,81,83,85,87,89,91,93,95,97,99,101,103,105,107,109,111,113,115,117,119,121,123,-1,-1,-1,-1,-1,-1,-1,-1,-1,-1,-1,-1,-1,-1,-1,-1,-1,-1,-1,-1,-1,-1,-1,-1,-1,-1,-1,-1,-1,-1,-1,-1,-1,-1,-1,-1,-1,-1,-1,-1,-1,-1,-1,-1,-1,-1,-1,-1,-1,-1,-1,-1,-1,-1,-1,-1,-1,-1,-1,-1,-1,-1,-1],"loss_changes":[1.3051686E1,3.4966316E0,2.8485742E0,1.1189604E0,7.5153476E-1,1.2501222E0,1.1109142E0,2.9926574E-1,7.8494453E-1,1.791288E-1,5.278498E-1,3.0773827E-1,1.8347085E-1,1.6767025E-1,2.4659252E-1,1.3129985E-1,1.05433896E-1,1.0961008E-1,1.8376374E-1,4.2123914E-2,1.08248845E-1,1.2609684E-1,1.1263792E-1,1.0276702E-1,9.098461E-2,3.692472E-2,6.2222242E-2,5.295226E-2,8.1861734E-2,1.0656619E-1,3.936529E-2,3.5385273E-2,7.6771975E-2,5.015725E-2,5.4076076E-2,5.789852E-2,2.8709412E-2,9.493518E-2,7.166034E-2,1.8634543E-2,1.1914134E-2,2.5973668E-2,4.181552E-2,4.9873233E-2,4.2642098E-2,7.692921E-2,2.7497858E-2,4.1386902E-2,3.221597E-2,2.5669904E-2,6.633097E-2,1.6642116E-2,9.045601E-4,9.496093E-3,2.7574658E-2,4.271934E-2,1.2045026E-2,3.3984184E-2,2.638936E-3,1.683861E-2,4.486084E-3,1.5829682E-2,0E0,0E0,0E0,0E0,0E0,0E0,0E0,0E0,0E0,0E0,0E0,0E0,0E0,0E0,0E0,0E0,0E0,0E0,0E0,0E0,0E0,0E0,0E0,0E0,0E0,0E0,0E0,0E0,0E0,0E0,0E0,0E0,0E0,0E0,0E0,0E0,0E0,0E0,0E0,0E0,0E0,0E0,0E0,0E0,0E0,0E0,0E0,0E0,0E0,0E0,0E0,0E0,0E0,0E0,0E0,0E0,0E0,0E0,0E0,0E0,0E0,0E0,0E0],"parents":[2147483647,0,0,1,1,2,2,3,3,4,4,5,5,6,6,7,7,8,8,9,9,10,10,11,11,12,12,13,13,14,14,15,15,16,16,17,17,18,18,19,19,20,20,21,21,22,22,23,23,24,24,25,25,26,26,27,27,28,28,29,29,30,30,31,31,32,32,33,33,34,34,35,35,36,36,37,37,38,38,39,39,40,40,41,41,42,42,43,43,44,44,45,45,46,46,47,47,48,48,49,49,50,50,51,51,52,52,53,53,54,54,55,55,56,56,57,57,58,58,59,59,60,60,61,61],"right_children":[2,4,6,8,10,12,14,16,18,20,22,24,26,28,30,32,34,36,38,40,42,44,46,48,50,52,54,56,58,60,62,64,66,68,70,72,74,76,78,80,82,84,86,88,90,92,94,96,98,100,102,104,106,108,110,112,114,116,118,120,122,124,-1,-1,-1,-1,-1,-1,-1,-1,-1,-1,-1,-1,-1,-1,-1,-1,-1,-1,-1,-1,-1,-1,-1,-1,-1,-1,-1,-1,-1,-1,-1,-1,-1,-1,-1,-1,-1,-1,-1,-1,-1,-1,-1,-1,-1,-1,-1,-1,-1,-1,-1,-1,-1,-1,-1,-1,-1,-1,-1,-1,-1,-1,-1],"split_conditions":[1.3257402E-1,3.069045E-1,-3.373883E-2,1.2655725E-1,2.3563235E-1,1.0508292E0,8.799648E-1,-4.626971E-1,-6.633236E-1,-7.070882E-1,-6.590289E-1,2.4458548E-1,1.4776899E0,6.853971E-1,1.6672633E0,-1.0810599E0,4.2515767E-1,2.0291498E-1,1.4028911E-1,1.0891225E0,-4.6381307E-1,7.02961E-1,7.020269E-1,3.2655254E-1,4.4741046E-1,4.946085E-1,-6.304951E-1,2.1680515E-1,3.557068E-1,-4.2214257E-1,-1.5822938E-1,5.779495E-1,6.119131E-1,-8.7849194E-1,-3.253253E-1,-8.0964863E-1,7.9659003E-1,8.418627E-1,3.69597E-1,8.397793E-1,-1.2555526E0,1.2401066E-1,1.01267934E-1,5.5183715E-1,8.6248964E-2,5.0849867E-1,-1.1861018E0,-6.519434E-1,-8.474979E-1,-7.4025834E-1,2.0640075E-1,-1.0430523E0,-8.4492743E-1,-1.1313673E0,6.26932E-1,-4.3941513E-1,-2.499169E-1,6.567146E-1,-5.44548E-1,4.7091794E-1,1.0529674E0,6.606568E-1,1.0702195E-2,-2.3797064E-3,-0E0,-4.875723E-3,-2.4832345E-3,-4.0067948E-4,-2.7705198E-3,1.2796827E-3,-1.2084434E-3,-9.306532E-3,-6.889218E-3,-4.752242E-3,-6.895195E-3,-5.273377E-3,-2.5977602E-3,-2.9567021E-3,-1.7849236E-5,1.137144E-3,2.9600894E-3,2.7790584E-4,4.2147054E-3,-1.3741149E-3,5.1117456E-4,5.278151E-4,2.3821215E-3,-4.1171196E-3,-2.0907803E-3,-2.1348754E-3,-0E0,-1.1149116E-3,1.2775104E-3,-0E0,2.8196815E-3,-2.7897905E-3,-9.17954E-4,-9.13769E-4,8.704693E-4,-1.0201143E-3,7.426651E-4,8.985481E-4,3.302386E-3,5.984707E-4,2.2944824E-3,1.6892847E-3,4.0566227E-3,1.45922E-3,3.8824768E-3,4.8247855E-3,7.317535E-3,-0E0,2.26846E-3,2.688498E-3,4.7314367E-3,3.060649E-3,4.9493033E-3,4.397785E-3,6.490131E-3,3.3109493E-3,5.6245173E-3,6.135838E-3,8.231156E-3,1.9073676E-3,8.090147E-3],"split_indices":[15,1,1,4,4,15,15,1,14,4,15,7,15,1,15,4,7,7,14,1,7,7,5,5,15,7,7,7,7,7,7,7,5,4,4,1,4,7,7,13,7,14,5,5,5,7,7,1,1,1,5,1,5,1,5,5,13,15,5,1,14,14,0,0,0,0,0,0,0,0,0,0,0,0,0,0,0,0,0,0,0,0,0,0,0,0,0,0,0,0,0,0,0,0,0,0,0,0,0,0,0,0,0,0,0,0,0,0,0,0,0,0,0,0,0,0,0,0,0,0,0,0,0,0,0],"split_type":[0,0,0,0,0,0,0,0,0,0,0,0,0,0,0,0,0,0,0,0,0,0,0,0,0,0,0,0,0,0,0,0,0,0,0,0,0,0,0,0,0,0,0,0,0,0,0,0,0,0,0,0,0,0,0,0,0,0,0,0,0,0,0,0,0,0,0,0,0,0,0,0,0,0,0,0,0,0,0,0,0,0,0,0,0,0,0,0,0,0,0,0,0,0,0,0,0,0,0,0,0,0,0,0,0,0,0,0,0,0,0,0,0,0,0,0,0,0,0,0,0,0,0,0,0],"sum_hessian":[3.605E3,2.062E3,1.543E3,1.205E3,8.57E2,7.58E2,7.85E2,5E2,7.05E2,3.65E2,4.92E2,4.77E2,2.81E2,4.31E2,3.54E2,2.98E2,2.02E2,3.49E2,3.56E2,1.46E2,2.19E2,2.85E2,2.07E2,2.64E2,2.13E2,1.29E2,1.52E2,1.68E2,2.63E2,2.21E2,1.33E2,8.7E1,2.11E2,1.14E2,8.8E1,2E2,1.49E2,2.46E2,1.1E2,8.4E1,6.2E1,8E1,1.39E2,1.98E2,8.7E1,1.46E2,6.1E1,1.64E2,1E2,7.9E1,1.34E2,8.3E1,4.6E1,4.2E1,1.1E2,8.9E1,7.9E1,1.63E2,1E2,8.8E1,1.33E2,6E1,7.3E1,6.3E1,2.4E1,1.5E2,6.1E1,4E1,7.4E1,5.4E1,3.4E1,1.06E2,9.4E1,6.2E1,8.7E1,1.92E2,5.4E1,7.7E1,3.3E1,4.8E1,3.6E1,5E0,5.7E1,5.9E1,2.1E1,7.3E1,6.6E1,1.39E2,5.9E1,4.8E1,3.9E1,9.7E1,4.9E1,1.4E1,4.7E1,1.09E2,5.5E1,5.8E1,4.2E1,4.4E1,3.5E1,8.1E1,5.3E1,3.6E1,4.7E1,1.1E1,3.5E1,1.7E1,2.5E1,7.1E1,3.9E1,2.8E1,6.1E1,5.2E1,2.7E1,1.03E2,6E1,3.3E1,6.7E1,3.3E1,5.5E1,5.2E1,8.1E1,4E0,5.6E1],"tree_param":{"num_deleted":"0","num_feature":"18","num_nodes":"125","size_leaf_vector":"1"}},{"base_weights":[5.861122E-4,-4.1657828E-2,7.747187E-2,-7.691673E-2,5.8947015E-3,3.8591728E-2,1.22001216E-1,-1.04787536E-1,-4.7345687E-2,-1.859139E-2,3.7694767E-2,8.532578E-3,7.678703E-2,9.10704E-2,1.5797096E-1,-1.3162011E-1,-8.2749814E-2,-6.8540424E-2,-2.1786544E-2,-4.7137484E-2,3.0837857E-4,1.9155266E-2,6.6238105E-2,-1.1319077E-2,3.531517E-2,5.5033762E-2,1.0106067E-1,8.01854E-2,1.23081684E-1,1.3622935E-1,1.818575E-1,-1.5003137E-1,-1.0391839E-1,-1.1907048E-1,-6.773482E-2,-8.8785E-2,-4.5741297E-2,-3.9647106E-2,1.2616629E-2,-5.9959657E-2,-2.091443E-2,-1.5355568E-2,2.3615917E-2,6.8854063E-4,4.392545E-2,5.354351E-2,4.45332E-3,-3.0669833E-2,1.3469899E-2,1.7519185E-2,6.0885623E-2,3.5679534E-2,8.016239E-2,6.4437956E-2,1.1606427E-1,6.395883E-2,9.8778315E-2,6.589697E-2,6.712047E-3,4.402009E-3,7.348919E-3,8.014001E-3,1.0456603E-2,-8.677352E-3,-6.5849843E-3,-6.2421937E-3,-4.138183E-3,-6.4222636E-3,-3.9591673E-3,-4.594933E-3,-2.1527966E-3,-5.177918E-3,-3.111983E-3,-3.4830347E-3,-1.3770154E-3,-2.759687E-3,-8.668162E-4,-2.0808847E-4,1.9650843E-3,-3.854161E-3,-2.279383E-3,-2.0752463E-3,-6.713813E-5,-2.0093878E-3,9.907569E-5,5.344948E-4,2.760507E-3,-8.65753E-4,1.0354769E-3,1.4879247E-3,3.4184742E-3,8.2405144E-4,3.0408192E-3,-1.9259073E-3,-0E0,-0E0,1.3779899E-3,1.3807128E-4,2.6162362E-3,1.6788691E-3,3.6329862E-3,9.97321E-4,2.6737838E-3,2.7363508E-3,5.503214E-3,1.7221578E-3,4.191592E-3,4.299983E-3,6.5759085E-3,1.8808149E-3,3.713245E-3,3.886836E-3,5.8459076E-3,-0E0,3.6812604E-3],"categories":[],"categories_nodes":[],"categories_segments":[],"categories_sizes":[],"default_left":[0,0,0,0,0,0,0,0,0,0,0,0,0,0,0,0,0,0,0,0,0,0,0,0,0,0,0,0,0,0,0,0,0,0,0,0,0,0,0,0,0,0,0,0,0,0,0,0,0,0,0,0,0,0,0,0,0,0,0,0,0,0,0,0,0,0,0,0,0,0,0,0,0,0,0,0,0,0,0,0,0,0,0,0,0,0,0,0,0,0,0,0,0,0,0,0,0,0,0,0,0,0,0,0,0,0,0,0,0,0,0,0,0,0,0],"id":9,"left_children":[1,3,5,7,9,11,13,15,17,19,21,23,25,27,29,31,33,35,37,39,41,43,45,47,49,51,53,55,57,59,61,63,65,67,69,71,73,75,77,79,81,83,85,87,89,91,-1,93,95,97,99,101,103,105,107,109,111,113,-1,-1,-1,-1,-1,-1,-1,-1,-1,-1,-1,-1,-1,-1,-1,-1,-1,-1,-1,-1,-1,-1,-1,-1,-1,-1,-1,-1,-1,-1,-1,-1,-1,-1,-1,-1,-1,-1,-1,-1,-1,-1,-1,-1,-1,-1,-1,-1,-1,-1,-1,-1,-1,-1,-1,-1,-1],"loss_changes":[1.1582527E1,3.863851E0,2.1693358E0,1.069376E0,7.649187E-1,7.692369E-1,6.1490345E-1,3.6859226E-1,3.3888304E-1,3.0250952E-1,2.1668059E-1,2.0590064E-1,1.3565409E-1,8.130574E-2,8.311701E-2,1.130414E-1,1.788528E-1,1.4403188E-1,1.8508342E-1,6.530309E-2,1.2203281E-1,1.15810916E-1,2.9076159E-2,1.0670453E-1,6.617634E-2,6.385723E-2,4.974854E-2,5.1023006E-2,2.0276904E-2,3.9702177E-2,1.926899E-3,2.2920847E-2,2.4683475E-2,9.077311E-3,1.441549E-1,4.8348546E-2,6.1936706E-2,6.012106E-2,4.8450805E-2,2.014947E-2,2.6689753E-2,8.8281736E-2,4.8360504E-2,5.620734E-2,2.6245385E-2,2.1457613E-2,0E0,2.7817622E-2,2.0162389E-2,4.6225727E-2,7.836014E-3,1.8190064E-2,2.8455287E-2,1.0880545E-2,1.0611534E-2,2.2940576E-2,1.3050079E-2,9.9013E-4,0E0,0E0,0E0,0E0,0E0,0E0,0E0,0E0,0E0,0E0,0E0,0E0,0E0,0E0,0E0,0E0,0E0,0E0,0E0,0E0,0E0,0E0,0E0,0E0,0E0,0E0,0E0,0E0,0E0,0E0,0E0,0E0,0E0,0E0,0E0,0E0,0E0,0E0,0E0,0E0,0E0,0E0,0E0,0E0,0E0,0E0,0E0,0E0,0E0,0E0,0E0,0E0,0E0,0E0,0E0,0E0,0E0],"parents":[2147483647,0,0,1,1,2,2,3,3,4,4,5,5,6,6,7,7,8,8,9,9,10,10,11,11,12,12,13,13,14,14,15,15,16,16,17,17,18,18,19,19,20,20,21,21,22,22,23,23,24,24,25,25,26,26,27,27,28,28,29,29,30,30,31,31,32,32,33,33,34,34,35,35,36,36,37,37,38,38,39,39,40,40,41,41,42,42,43,43,44,44,45,45,47,47,48,48,49,49,50,50,51,51,52,52,53,53,54,54,55,55,56,56,57,57],"right_children":[2,4,6,8,10,12,14,16,18,20,22,24,26,28,30,32,34,36,38,40,42,44,46,48,50,52,54,56,58,60,62,64,66,68,70,72,74,76,78,80,82,84,86,88,90,92,-1,94,96,98,100,102,104,106,108,110,112,114,-1,-1,-1,-1,-1,-1,-1,-1,-1,-1,-1,-1,-1,-1,-1,-1,-1,-1,-1,-1,-1,-1,-1,-1,-1,-1,-1,-1,-1,-1,-1,-1,-1,-1,-1,-1,-1,-1,-1,-1,-1,-1,-1,-1,-1,-1,-1,-1,-1,-1,-1,-1,-1,-1,-1,-1,-1],"split_conditions":[3.3944106E-1,3.069045E-1,1.7443208E-1,-5.468193E-1,-4.2942038E-1,1.0862894E0,1.0508292E0,-2.7254218E-1,2.0640075E-1,-3.8047206E-1,3.279265E-1,-8.1411207E-1,1.473543E-1,8.557529E-1,1.6282489E0,2.8149563E-1,-1.3292891E0,-7.276419E-1,5.5016917E-1,5.6685615E-1,1.01267934E-1,2.364387E-1,5.6685615E-1,6.40133E-2,6.870079E-1,1.6282489E0,-4.694531E-1,1.0575814E0,3.8891122E-1,-8.944083E-1,4.119204E-2,-4.3603274E-1,-1.8600972E-1,8.822546E-1,3.6232967E-2,3.4181666E-1,-5.193738E-1,-6.40489E-1,-3.365329E-1,1.3772813E0,1.3772813E0,1.4186403E0,1.2168972E0,9.881911E-1,1.2405195E0,5.8446574E-1,4.45332E-3,5.6685615E-1,-2.2914949E-1,9.252037E-1,-3.9436224E-1,-5.5732024E-1,-4.248478E-1,1.4442242E0,-9.673539E-1,-4.3941513E-1,-1.690736E-1,-1.3255346E0,6.712047E-3,4.402009E-3,7.348919E-3,8.014001E-3,1.0456603E-2,-8.677352E-3,-6.5849843E-3,-6.2421937E-3,-4.138183E-3,-6.4222636E-3,-3.9591673E-3,-4.594933E-3,-2.1527966E-3,-5.177918E-3,-3.111983E-3,-3.4830347E-3,-1.3770154E-3,-2.759687E-3,-8.668162E-4,-2.0808847E-4,1.9650843E-3,-3.854161E-3,-2.279383E-3,-2.0752463E-3,-6.713813E-5,-2.0093878E-3,9.907569E-5,5.344948E-4,2.760507E-3,-8.65753E-4,1.0354769E-3,1.4879247E-3,3.4184742E-3,8.2405144E-4,3.0408192E-3,-1.9259073E-3,-0E0,-0E0,1.3779899E-3,1.3807128E-4,2.6162362E-3,1.6788691E-3,3.6329862E-3,9.97321E-4,2.6737838E-3,2.7363508E-3,5.503214E-3,1.7221578E-3,4.191592E-3,4.299983E-3,6.5759085E-3,1.8808149E-3,3.713245E-3,3.886836E-3,5.8459076E-3,-0E0,3.6812604E-3],"split_indices":[15,1,1,15,15,15,15,8,5,7,7,8,7,7,15,5,15,1,7,5,5,5,5,7,5,15,5,1,1,7,5,7,7,5,7,7,7,8,1,8,8,8,7,1,1,1,0,5,5,7,7,1,1,15,1,5,5,5,0,0,0,0,0,0,0,0,0,0,0,0,0,0,0,0,0,0,0,0,0,0,0,0,0,0,0,0,0,0,0,0,0,0,0,0,0,0,0,0,0,0,0,0,0,0,0,0,0,0,0,0,0,0,0,0,0],"split_type":[0,0,0,0,0,0,0,0,0,0,0,0,0,0,0,0,0,0,0,0,0,0,0,0,0,0,0,0,0,0,0,0,0,0,0,0,0,0,0,0,0,0,0,0,0,0,0,0,0,0,0,0,0,0,0,0,0,0,0,0,0,0,0,0,0,0,0,0,0,0,0,0,0,0,0,0,0,0,0,0,0,0,0,0,0,0,0,0,0,0,0,0,0,0,0,0,0,0,0,0,0,0,0,0,0,0,0,0,0,0,0,0,0,0,0],"sum_hessian":[3.563E3,2.299E3,1.264E3,1.321E3,9.78E2,6.77E2,5.87E2,6.77E2,6.44E2,5.51E2,4.27E2,3.81E2,2.96E2,3.19E2,2.68E2,3.01E2,3.76E2,3.49E2,2.95E2,2.21E2,3.3E2,2.62E2,1.65E2,2.17E2,1.64E2,1.6E2,1.36E2,2.43E2,7.6E1,1.46E2,1.22E2,1.76E2,1.25E2,1.06E2,2.7E2,1.81E2,1.68E2,1.96E2,9.9E1,1.45E2,7.6E1,1.95E2,1.35E2,1.53E2,1.09E2,1.11E2,5.4E1,1.24E2,9.3E1,1E2,6.4E1,9.4E1,6.6E1,4.3E1,9.3E1,1.35E2,1.08E2,1.5E1,6.1E1,3E1,1.16E2,7.4E1,4.8E1,7.1E1,1.05E2,5.8E1,6.7E1,8.2E1,2.4E1,1.33E2,1.37E2,1.12E2,6.9E1,6.9E1,9.9E1,1.12E2,8.4E1,5.9E1,4E1,6.1E1,8.4E1,3.4E1,4.2E1,8.2E1,1.13E2,9.9E1,3.6E1,7.8E1,7.5E1,7.3E1,3.6E1,2.1E1,9E1,9.7E1,2.7E1,4.5E1,4.8E1,7.3E1,2.7E1,2.3E1,4.1E1,5.4E1,4E1,3.9E1,2.7E1,2E1,2.3E1,3.6E1,5.7E1,4.2E1,9.3E1,5.5E1,5.3E1,3E0,1.2E1],"tree_param":{"num_deleted":"0","num_feature":"18","num_nodes":"115","size_leaf_vector":"1"}},{"base_weights":[-1.7162843E-4,-4.7549486E-2,6.188643E-2,1.6396304E-3,-8.214088E-2,1.06767096E-1,2.6466453E-2,-2.1380017E-2,3.5019644E-2,-1.0647401E-1,-4.9673814E-2,7.35133E-2,1.471696E-1,-5.536375E-4,7.6345496E-2,-4.2365585E-2,1.3286072E-2,1.9158302E-2,6.0654465E-2,-1.27018E-1,-7.316393E-2,-7.588146E-2,-3.067015E-2,5.605458E-2,9.510513E-2,1.277036E-1,1.7752007E-1,-1.8467192E-2,2.9714115E-2,6.541767E-2,1.2040774E-1,-6.0802095E-2,-1.4388265E-2,-9.605871E-3,2.772325E-2,4.610951E-3,3.9294634E-2,8.315666E-2,4.552325E-2,-1.01378754E-1,-1.463182E-1,-4.892221E-2,-8.925054E-2,-1.01918936E-1,-6.0969017E-2,-3.960377E-4,-4.7896873E-2,4.2600878E-2,8.060771E-2,1.11651786E-1,3.2842688E-3,1.3999675E-1,9.2718944E-2,7.147122E-3,9.852545E-3,6.218391E-3,-3.14144E-2,5.1839128E-2,1.4699739E-2,4.7046676E-2,8.746215E-2,1.6557642E-3,6.3065635E-3,-3.9501647E-3,-1.8884059E-3,1.2600182E-4,-1.3541786E-3,-1.1037047E-3,5.522322E-4,2.189474E-3,5.308361E-4,8.8993245E-4,-7.7557715E-4,2.7990635E-3,9.531484E-4,1.8511476E-3,4.584562E-3,-0E0,2.4353412E-3,-6.347382E-3,-4.0734406E-3,-8.205148E-3,-6.1175358E-3,-2.9709253E-3,-1.143802E-4,-5.37092E-3,-3.4076502E-3,-3.1854555E-3,-5.563864E-3,-2.128832E-3,-4.014023E-3,-1.0468547E-3,1.2409784E-3,-3.1573528E-3,-1.0212894E-3,2.7623235E-3,1.5350945E-3,4.413891E-3,2.0997478E-3,5.7986006E-3,2.8138957E-3,5.5363337E-3,7.687201E-3,4.582367E-4,4.7720033E-3,-2.1055197E-4,1.7985248E-3,-2.1057185E-3,-3.8904737E-4,2.9660321E-3,1.143834E-3,1.2314766E-4,2.1562667E-3,3.1886927E-3,1.5292809E-3,4.3702495E-4,4.5878217E-3],"categories":[],"categories_nodes":[],"categories_segments":[],"categories_sizes":[],"default_left":[0,0,0,0,0,0,0,0,0,0,0,0,0,0,0,0,0,0,0,0,0,0,0,0,0,0,0,0,0,0,0,0,0,0,0,0,0,0,0,0,0,0,0,0,0,0,0,0,0,0,0,0,0,0,0,0,0,0,0,0,0,0,0,0,0,0,0,0,0,0,0,0,0,0,0,0,0,0,0,0,0,0,0,0,0,0,0,0,0,0,0,0,0,0,0,0,0,0,0,0,0,0,0,0,0,0,0,0,0,0,0,0,0,0,0,0,0],"id":10,"left_children":[1,3,5,7,9,11,13,15,17,19,21,23,25,27,29,31,33,35,37,39,41,43,45,47,49,51,53,55,57,59,61,63,65,67,69,71,73,75,77,79,81,83,85,87,89,91,93,95,97,99,-1,101,103,-1,-1,105,107,109,111,113,115,-1,-1,-1,-1,-1,-1,-1,-1,-1,-1,-1,-1,-1,-1,-1,-1,-1,-1,-1,-1,-1,-1,-1,-1,-1,-1,-1,-1,-1,-1,-1,-1,-1,-1,-1,-1,-1,-1,-1,-1,-1,-1,-1,-1,-1,-1,-1,-1,-1,-1,-1,-1,-1,-1,-1,-1],"loss_changes":[1.0544987E1,3.470778E0,2.4510217E0,6.475654E-1,9.239664E-1,8.84748E-1,1.1801518E0,3.643047E-1,1.311346E-1,4.3671274E-1,2.4400687E-1,1.22045994E-1,1.2759352E-1,3.0522653E-1,1.2136257E-1,1.5202117E-1,6.355013E-2,5.899412E-2,2.7269125E-2,1.6724062E-1,8.476782E-2,6.058979E-2,1.5317345E-1,5.493599E-2,5.52541E-2,4.632163E-2,1.5496492E-2,1.168155E-1,6.1680302E-2,8.367908E-2,8.8765025E-3,6.289953E-2,2.9785933E-2,1.9370012E-2,2.625046E-2,3.5002816E-2,2.1137059E-2,2.6330352E-3,1.0364935E-2,6.299496E-2,5.1020622E-2,4.7537446E-2,3.4533024E-2,1.8729568E-3,3.437704E-2,5.866033E-2,7.037023E-2,1.1226147E-2,4.589319E-3,6.496906E-4,0E0,1.2058258E-2,1.1696517E-3,0E0,0E0,4.0873412E-2,5.4614663E-2,7.97452E-3,3.9858207E-2,2.7437449E-2,2.6334167E-2,0E0,0E0,0E0,0E0,0E0,0E0,0E0,0E0,0E0,0E0,0E0,0E0,0E0,0E0,0E0,0E0,0E0,0E0,0E0,0E0,0E0,0E0,0E0,0E0,0E0,0E0,0E0,0E0,0E0,0E0,0E0,0E0,0E0,0E0,0E0,0E0,0E0,0E0,0E0,0E0,0E0,0E0,0E0,0E0,0E0,0E0,0E0,0E0,0E0,0E0,0E0,0E0,0E0,0E0,0E0,0E0],"parents":[2147483647,0,0,1,1,2,2,3,3,4,4,5,5,6,6,7,7,8,8,9,9,10,10,11,11,12,12,13,13,14,14,15,15,16,16,17,17,18,18,19,19,20,20,21,21,22,22,23,23,24,24,25,25,26,26,27,27,28,28,29,29,30,30,31,31,32,32,33,33,34,34,35,35,36,36,37,37,38,38,39,39,40,40,41,41,42,42,43,43,44,44,45,45,46,46,47,47,48,48,49,49,51,51,52,52,55,55,56,56,57,57,58,58,59,59,60,60],"right_children":[2,4,6,8,10,12,14,16,18,20,22,24,26,28,30,32,34,36,38,40,42,44,46,48,50,52,54,56,58,60,62,64,66,68,70,72,74,76,78,80,82,84,86,88,90,92,94,96,98,100,-1,102,104,-1,-1,106,108,110,112,114,116,-1,-1,-1,-1,-1,-1,-1,-1,-1,-1,-1,-1,-1,-1,-1,-1,-1,-1,-1,-1,-1,-1,-1,-1,-1,-1,-1,-1,-1,-1,-1,-1,-1,-1,-1,-1,-1,-1,-1,-1,-1,-1,-1,-1,-1,-1,-1,-1,-1,-1,-1,-1,-1,-1,-1,-1],"split_conditions":[2.2222397E-1,-2.7857885E-1,-1.8508591E-1,-1.2836197E-1,-1.5990302E-1,9.742882E-1,1.0849817E0,-5.217011E-1,4.112675E-1,-5.775904E-1,-3.9436224E-1,2.0291498E-1,5.5016917E-1,3.69597E-1,1.7833271E0,1.056838E-1,-3.9436224E-1,8.4310234E-1,-1.1511797E0,5.94022E-1,5.083201E-1,-4.3941513E-1,4.8494688E-1,7.3011154E-1,-8.0058116E-1,-5.2789336E-1,1.287377E0,4.5378256E-1,5.3948444E-1,3.0014616E-1,-1.283333E0,-1.2401668E-1,-1.1511797E0,-3.82312E-2,-9.953581E-1,-8.940741E-1,-9.6419376E-1,1.17658205E-1,-1.2585722E0,-3.249114E-1,3.4181666E-1,8.557529E-1,-1.3044904E-1,3.0575207E-1,8.355454E-1,8.746434E-1,1.0134239E0,-8.7849194E-1,-4.811469E-1,1.331472E0,3.2842688E-3,4.330687E-1,-7.02409E-1,7.147122E-3,9.852545E-3,7.691798E-1,7.838304E-1,6.682742E-1,1.5400921E-1,6.018131E-1,-4.816217E-1,1.6557642E-3,6.3065635E-3,-3.9501647E-3,-1.8884059E-3,1.2600182E-4,-1.3541786E-3,-1.1037047E-3,5.522322E-4,2.189474E-3,5.308361E-4,8.8993245E-4,-7.7557715E-4,2.7990635E-3,9.531484E-4,1.8511476E-3,4.584562E-3,-0E0,2.4353412E-3,-6.347382E-3,-4.0734406E-3,-8.205148E-3,-6.1175358E-3,-2.9709253E-3,-1.143802E-4,-5.37092E-3,-3.4076502E-3,-3.1854555E-3,-5.563864E-3,-2.128832E-3,-4.014023E-3,-1.0468547E-3,1.2409784E-3,-3.1573528E-3,-1.0212894E-3,2.7623235E-3,1.5350945E-3,4.413891E-3,2.0997478E-3,5.7986006E-3,2.8138957E-3,5.5363337E-3,7.687201E-3,4.582367E-4,4.7720033E-3,-2.1055197E-4,1.7985248E-3,-2.1057185E-3,-3.8904737E-4,2.9660321E-3,1.143834E-3,1.2314766E-4,2.1562667E-3,3.1886927E-3,1.5292809E-3,4.3702495E-4,4.5878217E-3],"split_indices":[14,4,4,1,1,14,14,14,7,14,7,7,7,7,14,7,7,1,4,4,4,5,4,14,4,4,14,4,4,7,7,5,4,14,4,4,4,1,14,7,7,7,7,4,4,1,1,4,4,2,0,1,1,0,0,14,14,2,16,4,1,0,0,0,0,0,0,0,0,0,0,0,0,0,0,0,0,0,0,0,0,0,0,0,0,0,0,0,0,0,0,0,0,0,0,0,0,0,0,0,0,0,0,0,0,0,0,0,0,0,0,0,0,0,0,0,0],"split_type":[0,0,0,0,0,0,0,0,0,0,0,0,0,0,0,0,0,0,0,0,0,0,0,0,0,0,0,0,0,0,0,0,0,0,0,0,0,0,0,0,0,0,0,0,0,0,0,0,0,0,0,0,0,0,0,0,0,0,0,0,0,0,0,0,0,0,0,0,0,0,0,0,0,0,0,0,0,0,0,0,0,0,0,0,0,0,0,0,0,0,0,0,0,0,0,0,0,0,0,0,0,0,0,0,0,0,0,0,0,0,0,0,0,0,0,0,0],"sum_hessian":[3.585E3,2.034E3,1.551E3,8.39E2,1.195E3,6.82E2,8.69E2,4.95E2,3.44E2,6.8E2,5.15E2,3.77E2,3.05E2,5.63E2,3.06E2,3.1E2,1.85E2,2.16E2,1.28E2,4.17E2,2.63E2,2.13E2,3.02E2,2.13E2,1.64E2,1.91E2,1.14E2,3.56E2,2.07E2,2.49E2,5.7E1,1.84E2,1.26E2,6.9E1,1.16E2,1.29E2,8.7E1,4.7E1,8.1E1,1.84E2,2.33E2,1.09E2,1.54E2,7.3E1,1.4E2,1.12E2,1.9E2,1.42E2,7.1E1,1.01E2,6.3E1,1.37E2,5.4E1,4.6E1,6.8E1,1.2E2,2.36E2,8E1,1.27E2,1.4E2,1.09E2,5E0,5.2E1,9.9E1,8.5E1,5.1E1,7.5E1,4.6E1,2.3E1,5.6E1,6E1,8.1E1,4.8E1,4.4E1,4.3E1,1E1,3.7E1,6E0,7.5E1,7.6E1,1.08E2,1.28E2,1.05E2,8.7E1,2.2E1,7.8E1,7.6E1,1.8E1,5.5E1,7.6E1,6.4E1,6.4E1,4.8E1,1.19E2,7.1E1,6.3E1,7.9E1,5.6E1,1.5E1,9.1E1,1E1,4.9E1,8.8E1,3E0,5.1E1,8.7E1,3.3E1,1.59E2,7.7E1,6E1,2E1,9.2E1,3.5E1,6.5E1,7.5E1,7E0,1.02E2],"tree_param":{"num_deleted":"0","num_feature":"18","num_nodes":"117","size_leaf_vector":"1"}},{"base_weights":[1.6169471E-3,-4.424501E-2,5.9800345E-2,3.060659E-3,-7.786843E-2,1.0166233E-1,2.6338534E-2,-1.620481E-2,4.2939592E-2,-1.0657364E-1,-5.189899E-2,7.099536E-2,1.4107639E-1,7.2001846E-4,7.091543E-2,-4.1065253E-2,4.8257536E-3,2.546953E-2,6.71487E-2,-1.243029E-1,-6.363104E-2,-6.4881645E-2,-1.6219864E-2,5.088583E-2,9.136504E-2,1.1443241E-1,1.5579395E-1,-1.741703E-2,3.0148545E-2,5.355462E-2,9.344014E-2,-5.1834613E-2,-0E0,-1.1915894E-2,2.2425117E-2,4.2178795E-2,2.6082415E-3,5.7366744E-2,5.447311E-3,-1.4234684E-1,-1.014237E-1,-7.454095E-2,-2.6378116E-2,-3.6146075E-2,-7.491838E-2,6.629642E-3,-3.579344E-2,6.685245E-2,3.5439212E-2,9.871383E-2,4.4812806E-2,9.179769E-2,6.685113E-3,6.33181E-3,8.641957E-3,1.3505552E-2,-2.6725031E-2,4.9499333E-2,1.3422086E-2,3.8079333E-2,8.000009E-2,6.9200344E-2,5.329398E-3,-2.9478245E-3,-4.1822888E-4,-5.3704303E-4,7.0697296E-4,-0E0,-1.8029427E-3,1.953516E-3,1.2306414E-4,1.6655367E-3,3.0129026E-3,-1.1482161E-4,1.6368435E-3,3.6786643E-3,1.9816763E-3,-5.92677E-3,-7.9906555E-3,-3.8414586E-3,-6.24169E-3,-2.634565E-3,-4.8964205E-3,-2.1046323E-3,-0E0,-2.803497E-3,-2.869696E-4,-4.13574E-3,-1.9829809E-3,-1.657949E-4,1.6241571E-3,-2.52089E-3,-3.4179168E-6,8.043675E-4,3.477043E-3,2.4204378E-3,6.040553E-4,5.437421E-3,4.0325564E-3,-0E0,2.7556443E-3,5.0498657E-3,1.9891341E-3,-9.3545495E-5,1.6648801E-3,-2.348426E-3,-6.800957E-4,-0E0,2.5526742E-3,1.682513E-3,-0E0,2.3678124E-3,9.247862E-4,3.811242E-4,4.211893E-3,3.6898286E-3,2.1152392E-4],"categories":[],"categories_nodes":[],"categories_segments":[],"categories_sizes":[],"default_left":[0,0,0,0,0,0,0,0,0,0,0,0,0,0,0,0,0,0,0,0,0,0,0,0,0,0,0,0,0,0,0,0,0,0,0,0,0,0,0,0,0,0,0,0,0,0,0,0,0,0,0,0,0,0,0,0,0,0,0,0,0,0,0,0,0,0,0,0,0,0,0,0,0,0,0,0,0,0,0,0,0,0,0,0,0,0,0,0,0,0,0,0,0,0,0,0,0,0,0,0,0,0,0,0,0,0,0,0,0,0,0,0,0,0,0,0,0],"id":11,"left_children":[1,3,5,7,9,11,13,15,17,19,21,23,25,27,29,31,33,35,37,39,41,43,45,47,49,51,53,55,57,59,61,63,65,67,69,71,73,75,-1,77,79,81,83,85,87,89,91,93,95,97,99,101,-1,-1,-1,103,105,107,109,111,113,115,-1,-1,-1,-1,-1,-1,-1,-1,-1,-1,-1,-1,-1,-1,-1,-1,-1,-1,-1,-1,-1,-1,-1,-1,-1,-1,-1,-1,-1,-1,-1,-1,-1,-1,-1,-1,-1,-1,-1,-1,-1,-1,-1,-1,-1,-1,-1,-1,-1,-1,-1,-1,-1,-1,-1],"loss_changes":[9.530405E0,3.1825135E0,2.1907473E0,6.4027864E-1,8.493171E-1,8.124571E-1,9.9545616E-1,2.9556078E-1,1.0406619E-1,3.9355707E-1,2.766379E-1,1.4333713E-1,7.396603E-2,3.0069637E-1,1.0504031E-1,1.15719974E-1,9.000549E-2,5.7294533E-2,2.2502422E-2,1.2136412E-1,5.5002093E-2,1.1597073E-1,7.829109E-2,3.7714243E-2,4.7249556E-2,1.4899492E-2,4.2594433E-2,1.0098336E-1,6.295626E-2,6.0857177E-2,1.8069863E-2,5.624038E-2,8.459089E-3,4.2129554E-2,4.559599E-2,3.2257289E-3,1.3758742E-2,1.2778401E-2,0E0,4.1392326E-2,7.2152376E-2,4.3654084E-2,1.9310344E-2,6.6801324E-2,7.5196385E-2,2.2566091E-2,4.3536395E-2,3.4202933E-3,2.638708E-2,2.014637E-3,9.615265E-3,9.658158E-3,0E0,0E0,0E0,2.694284E-2,6.450033E-2,7.3391944E-3,3.3866376E-2,1.4521658E-2,1.010859E-2,7.711768E-3,0E0,0E0,0E0,0E0,0E0,0E0,0E0,0E0,0E0,0E0,0E0,0E0,0E0,0E0,0E0,0E0,0E0,0E0,0E0,0E0,0E0,0E0,0E0,0E0,0E0,0E0,0E0,0E0,0E0,0E0,0E0,0E0,0E0,0E0,0E0,0E0,0E0,0E0,0E0,0E0,0E0,0E0,0E0,0E0,0E0,0E0,0E0,0E0,0E0,0E0,0E0,0E0,0E0,0E0,0E0],"parents":[2147483647,0,0,1,1,2,2,3,3,4,4,5,5,6,6,7,7,8,8,9,9,10,10,11,11,12,12,13,13,14,14,15,15,16,16,17,17,18,18,19,19,20,20,21,21,22,22,23,23,24,24,25,25,26,26,27,27,28,28,29,29,30,30,31,31,32,32,33,33,34,34,35,35,36,36,37,37,39,39,40,40,41,41,42,42,43,43,44,44,45,45,46,46,47,47,48,48,49,49,50,50,51,51,55,55,56,56,57,57,58,58,59,59,60,60,61,61],"right_children":[2,4,6,8,10,12,14,16,18,20,22,24,26,28,30,32,34,36,38,40,42,44,46,48,50,52,54,56,58,60,62,64,66,68,70,72,74,76,-1,78,80,82,84,86,88,90,92,94,96,98,100,102,-1,-1,-1,104,106,108,110,112,114,116,-1,-1,-1,-1,-1,-1,-1,-1,-1,-1,-1,-1,-1,-1,-1,-1,-1,-1,-1,-1,-1,-1,-1,-1,-1,-1,-1,-1,-1,-1,-1,-1,-1,-1,-1,-1,-1,-1,-1,-1,-1,-1,-1,-1,-1,-1,-1,-1,-1,-1,-1,-1,-1,-1,-1],"split_conditions":[2.1408474E-1,-2.7857885E-1,-2.0845914E-1,2.3120597E-1,-6.758037E-1,9.742882E-1,1.0849817E0,-8.8796616E-1,4.6682817E-1,-1.7251945E-1,7.168512E-1,6.40133E-2,-3.3880156E-1,3.557068E-1,3.0014616E-1,8.557529E-1,9.1793634E-2,-8.940741E-1,9.873874E-1,2.0291498E-1,9.9465454E-1,1.8888588E-1,4.771558E-1,-9.018651E-1,-4.110272E-1,1.407295E0,1.287377E0,2.2784127E-1,6.018131E-1,1.5586845E0,1.3318715E0,6.9386226E-1,-7.276419E-1,-8.083722E-1,-9.408206E-1,6.26932E-1,1.0775013E0,-1.0343134E0,5.447311E-3,5.94022E-1,8.355454E-1,8.822919E-1,1.1154092E-2,-9.682093E-2,1.1017389E0,7.9894483E-1,7.4217093E-1,-1.2701479E0,-1.432597E-1,-2.3163716E-1,3.8826412E-1,-5.2789336E-1,6.685113E-3,6.33181E-3,8.641957E-3,-5.749344E-1,5.2663094E-1,2.4989732E-1,-5.154693E-1,1.0381135E0,-1.616697E0,2.0891932E-1,5.329398E-3,-2.9478245E-3,-4.1822888E-4,-5.3704303E-4,7.0697296E-4,-0E0,-1.8029427E-3,1.953516E-3,1.2306414E-4,1.6655367E-3,3.0129026E-3,-1.1482161E-4,1.6368435E-3,3.6786643E-3,1.9816763E-3,-5.92677E-3,-7.9906555E-3,-3.8414586E-3,-6.24169E-3,-2.634565E-3,-4.8964205E-3,-2.1046323E-3,-0E0,-2.803497E-3,-2.869696E-4,-4.13574E-3,-1.9829809E-3,-1.657949E-4,1.6241571E-3,-2.52089E-3,-3.4179168E-6,8.043675E-4,3.477043E-3,2.4204378E-3,6.040553E-4,5.437421E-3,4.0325564E-3,-0E0,2.7556443E-3,5.0498657E-3,1.9891341E-3,-9.3545495E-5,1.6648801E-3,-2.348426E-3,-6.800957E-4,-0E0,2.5526742E-3,1.682513E-3,-0E0,2.3678124E-3,9.247862E-4,3.811242E-4,4.211893E-3,3.6898286E-3,2.1152392E-4],"split_indices":[14,4,4,1,14,14,14,14,7,1,7,7,7,7,7,7,7,4,5,7,7,4,4,4,4,14,14,4,4,14,14,8,1,4,4,5,5,4,0,4,4,4,5,1,1,1,1,1,9,9,14,4,0,0,0,7,14,14,12,4,7,10,0,0,0,0,0,0,0,0,0,0,0,0,0,0,0,0,0,0,0,0,0,0,0,0,0,0,0,0,0,0,0,0,0,0,0,0,0,0,0,0,0,0,0,0,0,0,0,0,0,0,0,0,0,0,0],"split_type":[0,0,0,0,0,0,0,0,0,0,0,0,0,0,0,0,0,0,0,0,0,0,0,0,0,0,0,0,0,0,0,0,0,0,0,0,0,0,0,0,0,0,0,0,0,0,0,0,0,0,0,0,0,0,0,0,0,0,0,0,0,0,0,0,0,0,0,0,0,0,0,0,0,0,0,0,0,0,0,0,0,0,0,0,0,0,0,0,0,0,0,0,0,0,0,0,0,0,0,0,0,0,0,0,0,0,0,0,0,0,0,0,0,0,0,0,0],"sum_hessian":[3.569E3,1.995E3,1.574E3,8.28E2,1.167E3,6.97E2,8.77E2,5.57E2,2.71E2,5.51E2,6.16E2,3.95E2,3.02E2,5.59E2,3.18E2,2.57E2,3E2,1.61E2,1.1E2,3.87E2,1.64E2,4.49E2,1.67E2,2.03E2,1.92E2,1.13E2,1.89E2,3.44E2,2.15E2,1.84E2,1.34E2,2.04E2,5.3E1,1.51E2,1.49E2,9E1,7.1E1,9.3E1,1.7E1,2.11E2,1.76E2,1.24E2,4E1,1.2E2,3.29E2,7.5E1,9.2E1,9.5E1,1.08E2,1.63E2,2.9E1,5.7E1,5.6E1,7.5E1,1.14E2,7.7E1,2.67E2,9.6E1,1.19E2,1.2E2,6.4E1,5.2E1,8.2E1,1.73E2,3.1E1,2.9E1,2.4E1,1.03E2,4.8E1,7.8E1,7.1E1,6.6E1,2.4E1,5.9E1,1.2E1,4.4E1,4.9E1,9.5E1,1.16E2,9E1,8.6E1,6.8E1,5.6E1,2.6E1,1.4E1,7E1,5E1,2.66E2,6.3E1,5.2E1,2.3E1,6.3E1,2.9E1,7E0,8.8E1,6.6E1,4.2E1,9.8E1,6.5E1,7E0,2.2E1,4.6E1,1.1E1,4.1E1,3.6E1,1.01E2,1.66E2,3E0,9.3E1,4.8E1,7.1E1,7.7E1,4.3E1,5E0,5.9E1,4.7E1,5E0],"tree_param":{"num_deleted":"0","num_feature":"18","num_nodes":"117","size_leaf_vector":"1"}},{"base_weights":[7.0940057E-4,-4.0677074E-2,5.9899528E-2,7.140104E-3,-7.1958214E-2,9.721007E-2,2.480121E-2,-1.1575038E-2,4.2403616E-2,-1.09863535E-1,-5.2871868E-2,7.2297975E-2,1.3342968E-1,-5.647207E-4,6.431217E-2,-2.9110398E-2,1.819665E-2,2.7249673E-2,6.5892614E-2,-1.2544008E-1,-7.1048126E-2,-3.3000313E-2,-7.257236E-2,8.493294E-2,4.5831542E-2,1.0674017E-1,1.5583047E-1,-1.740102E-2,2.9669011E-2,4.8005566E-2,9.079926E-2,-4.691403E-2,-1.9312076E-3,-2.8264141E-5,3.122348E-2,5.1015176E-2,1.472403E-2,5.4070417E-2,4.72079E-3,-9.778306E-2,-1.413059E-1,-3.4548286E-2,-8.0949634E-2,-4.585617E-2,4.6686697E-4,-8.605031E-2,-4.43154E-2,6.6858746E-2,1.00006826E-1,2.1053238E-2,5.978383E-2,6.5849796E-3,8.845136E-2,8.524347E-3,1.1993527E-1,-3.1352453E-2,1.245894E-3,4.8830487E-2,1.5534133E-2,3.1111583E-2,6.816555E-2,3.4309436E-2,9.749873E-2,-2.9358107E-3,-1.1208315E-3,-6.696504E-4,8.910708E-4,-8.7975926E-4,5.6500954E-4,2.0792473E-3,1.4129972E-4,-0E0,2.6824693E-3,-0E0,1.7273482E-3,3.1388232E-3,1.2761477E-3,-5.9923683E-3,-3.94876E-3,-7.81669E-3,-5.7345433E-3,-1.9529304E-3,-0E0,-4.459343E-3,-1.7143512E-3,-3.0481438E-3,-9.091981E-4,-4.3280073E-4,1.4332602E-3,-4.8877145E-3,-2.933431E-3,-3.0254999E-3,-1.0908617E-3,2.4993333E-3,4.271045E-3,5.496477E-3,3.9623864E-3,2.1446252E-4,1.9529918E-3,6.7021884E-4,3.2109574E-3,3.0142346E-3,5.0826445E-3,2.4386423E-3,6.4030006E-3,-2.1025622E-3,-7.4540405E-4,8.6978276E-4,-4.1889586E-4,7.092425E-5,2.5509128E-3,1.2418594E-3,-6.1714655E-4,2.0821632E-3,6.8042794E-4,2.4320013E-4,3.6279184E-3,1.9894761E-3,-0E0,2.4014586E-4,5.016416E-3],"categories":[],"categories_nodes":[],"categories_segments":[],"categories_sizes":[],"default_left":[0,0,0,0,0,0,0,0,0,0,0,0,0,0,0,0,0,0,0,0,0,0,0,0,0,0,0,0,0,0,0,0,0,0,0,0,0,0,0,0,0,0,0,0,0,0,0,0,0,0,0,0,0,0,0,0,0,0,0,0,0,0,0,0,0,0,0,0,0,0,0,0,0,0,0,0,0,0,0,0,0,0,0,0,0,0,0,0,0,0,0,0,0,0,0,0,0,0,0,0,0,0,0,0,0,0,0,0,0,0,0,0,0,0,0,0,0,0,0,0,0],"id":12,"left_children":[1,3,5,7,9,11,13,15,17,19,21,23,25,27,29,31,33,35,37,39,41,43,45,47,49,51,53,55,57,59,61,63,65,67,69,71,73,75,-1,77,79,81,83,85,87,89,91,93,95,97,99,-1,101,-1,103,105,107,109,111,113,115,117,119,-1,-1,-1,-1,-1,-1,-1,-1,-1,-1,-1,-1,-1,-1,-1,-1,-1,-1,-1,-1,-1,-1,-1,-1,-1,-1,-1,-1,-1,-1,-1,-1,-1,-1,-1,-1,-1,-1,-1,-1,-1,-1,-1,-1,-1,-1,-1,-1,-1,-1,-1,-1,-1,-1,-1,-1,-1,-1],"loss_changes":[8.872167E0,3.192998E0,1.9379082E0,5.592614E-1,9.1047573E-1,6.203437E-1,7.79132E-1,2.8823054E-1,9.3539774E-2,2.3081684E-1,3.2411146E-1,1.2715816E-1,1.3108873E-1,2.380218E-1,1.12630725E-1,1.6341805E-1,5.1077798E-2,4.7150046E-2,1.7813414E-2,9.523058E-2,3.1551838E-2,1.9085824E-1,1.4653325E-1,5.5092335E-2,4.044047E-2,2.9329777E-2,3.1529427E-2,8.2135685E-2,3.776528E-2,5.3343385E-2,2.5860667E-2,5.0707996E-2,3.171833E-2,1.7146826E-2,3.1044379E-2,5.0294697E-3,3.517878E-2,1.044482E-2,0E0,1.8790722E-2,3.016138E-2,5.714979E-3,2.187854E-2,1.22658074E-1,3.2861803E-2,7.05986E-2,4.2548954E-2,2.5095284E-2,3.6805868E-3,1.2401849E-2,9.684801E-3,0E0,9.284794E-3,0E0,4.97967E-3,2.481763E-2,2.094156E-2,1.6336292E-3,2.7490173E-2,1.4000766E-2,1.5262872E-2,1.3414118E-3,1.4709413E-2,0E0,0E0,0E0,0E0,0E0,0E0,0E0,0E0,0E0,0E0,0E0,0E0,0E0,0E0,0E0,0E0,0E0,0E0,0E0,0E0,0E0,0E0,0E0,0E0,0E0,0E0,0E0,0E0,0E0,0E0,0E0,0E0,0E0,0E0,0E0,0E0,0E0,0E0,0E0,0E0,0E0,0E0,0E0,0E0,0E0,0E0,0E0,0E0,0E0,0E0,0E0,0E0,0E0,0E0,0E0,0E0,0E0,0E0],"parents":[2147483647,0,0,1,1,2,2,3,3,4,4,5,5,6,6,7,7,8,8,9,9,10,10,11,11,12,12,13,13,14,14,15,15,16,16,17,17,18,18,19,19,20,20,21,21,22,22,23,23,24,24,25,25,26,26,27,27,28,28,29,29,30,30,31,31,32,32,33,33,34,34,35,35,36,36,37,37,39,39,40,40,41,41,42,42,43,43,44,44,45,45,46,46,47,47,48,48,49,49,50,50,52,52,54,54,55,55,56,56,57,57,58,58,59,59,60,60,61,61,62,62],"right_children":[2,4,6,8,10,12,14,16,18,20,22,24,26,28,30,32,34,36,38,40,42,44,46,48,50,52,54,56,58,60,62,64,66,68,70,72,74,76,-1,78,80,82,84,86,88,90,92,94,96,98,100,-1,102,-1,104,106,108,110,112,114,116,118,120,-1,-1,-1,-1,-1,-1,-1,-1,-1,-1,-1,-1,-1,-1,-1,-1,-1,-1,-1,-1,-1,-1,-1,-1,-1,-1,-1,-1,-1,-1,-1,-1,-1,-1,-1,-1,-1,-1,-1,-1,-1,-1,-1,-1,-1,-1,-1,-1,-1,-1,-1,-1,-1,-1,-1,-1,-1,-1],"split_conditions":[2.819116E-1,-3.0974317E-1,-4.484649E-2,1.17658205E-1,-9.2649186E-1,1.0529674E0,1.0529674E0,-4.59843E-1,5.0849867E-1,-3.6807394E-1,7.1867925E-1,-5.824309E-1,-4.7108043E-2,4.6682817E-1,1.5386077E0,2.4458548E-1,-3.9436224E-1,-1.2212994E0,6.7198896E-1,4.5378256E-1,8.760185E-2,7.168512E-1,5.718493E-1,6.40133E-2,5.5267644E-1,-1.0498956E0,-6.4475954E-1,4.5199332E-1,6.018131E-1,3.0014616E-1,-9.6385914E-1,2.514577E-1,4.0164742E-1,-1.12569444E-1,-6.9929713E-1,-1.5055757E0,-1.8883856E-2,-7.772079E-1,4.72079E-3,-3.9436224E-1,5.36279E-1,8.822546E-1,9.881911E-1,2.6905525E-1,7.9894483E-1,-3.82312E-2,3.565905E-1,7.1546096E-1,5.897376E-1,-6.099821E-2,-1.4361248E0,6.5849796E-3,4.7091794E-1,8.524347E-3,-1.4728661E-1,6.9375634E-1,6.4076847E-1,-1.4191523E0,7.293582E-1,-1.432597E-1,-3.365329E-1,1.4012823E0,-6.527988E-2,-2.9358107E-3,-1.1208315E-3,-6.696504E-4,8.910708E-4,-8.7975926E-4,5.6500954E-4,2.0792473E-3,1.4129972E-4,-0E0,2.6824693E-3,-0E0,1.7273482E-3,3.1388232E-3,1.2761477E-3,-5.9923683E-3,-3.94876E-3,-7.81669E-3,-5.7345433E-3,-1.9529304E-3,-0E0,-4.459343E-3,-1.7143512E-3,-3.0481438E-3,-9.091981E-4,-4.3280073E-4,1.4332602E-3,-4.8877145E-3,-2.933431E-3,-3.0254999E-3,-1.0908617E-3,2.4993333E-3,4.271045E-3,5.496477E-3,3.9623864E-3,2.1446252E-4,1.9529918E-3,6.7021884E-4,3.2109574E-3,3.0142346E-3,5.0826445E-3,2.4386423E-3,6.4030006E-3,-2.1025622E-3,-7.4540405E-4,8.6978276E-4,-4.1889586E-4,7.092425E-5,2.5509128E-3,1.2418594E-3,-6.1714655E-4,2.0821632E-3,6.8042794E-4,2.4320013E-4,3.6279184E-3,1.9894761E-3,-0E0,2.4014586E-4,5.016416E-3],"split_indices":[14,4,4,1,14,14,14,14,7,1,4,4,7,7,14,7,7,4,5,4,4,7,1,7,14,4,4,1,4,7,7,5,5,14,4,7,5,4,0,7,7,5,1,1,1,14,5,14,2,7,7,0,1,0,1,14,4,11,2,9,1,2,1,0,0,0,0,0,0,0,0,0,0,0,0,0,0,0,0,0,0,0,0,0,0,0,0,0,0,0,0,0,0,0,0,0,0,0,0,0,0,0,0,0,0,0,0,0,0,0,0,0,0,0,0,0,0,0,0,0,0],"split_type":[0,0,0,0,0,0,0,0,0,0,0,0,0,0,0,0,0,0,0,0,0,0,0,0,0,0,0,0,0,0,0,0,0,0,0,0,0,0,0,0,0,0,0,0,0,0,0,0,0,0,0,0,0,0,0,0,0,0,0,0,0,0,0,0,0,0,0,0,0,0,0,0,0,0,0,0,0,0,0,0,0,0,0,0,0,0,0,0,0,0,0,0,0,0,0,0,0,0,0,0,0,0,0,0,0,0,0,0,0,0,0,0,0,0,0,0,0,0,0,0,0],"sum_hessian":[3.619E3,2.129E3,1.49E3,8.41E2,1.288E3,7.2E2,7.7E2,5.48E2,2.93E2,4.28E2,8.6E2,4.3E2,2.9E2,4.68E2,3.02E2,3.47E2,2.01E2,1.82E2,1.11E2,3.02E2,1.26E2,4.32E2,4.28E2,2.87E2,1.43E2,1.37E2,1.53E2,3.03E2,1.65E2,1.91E2,1.11E2,2.07E2,1.4E2,8.1E1,1.2E2,5.9E1,1.23E2,8.3E1,2.8E1,1.15E2,1.87E2,3E1,9.6E1,3.14E2,1.18E2,2.86E2,1.42E2,1.36E2,1.51E2,5.5E1,8.8E1,5.3E1,8.4E1,1.04E2,4.9E1,1.76E2,1.27E2,6.6E1,9.9E1,1.08E2,8.3E1,1.4E1,9.7E1,1.36E2,7.1E1,9.2E1,4.8E1,3.5E1,4.6E1,8.5E1,3.5E1,4E0,5.5E1,7.2E1,5.1E1,6E1,2.3E1,4.8E1,6.7E1,1.14E2,7.3E1,2.7E1,3E0,7.9E1,1.7E1,2E2,1.14E2,8.7E1,3.1E1,1.96E2,9E1,7.9E1,6.3E1,7.6E1,6E1,9.6E1,5.5E1,3.2E1,2.3E1,1E1,7.8E1,3.1E1,5.3E1,7E0,4.2E1,1.02E2,7.4E1,5.1E1,7.6E1,5E0,6.1E1,7.7E1,2.2E1,6.3E1,4.5E1,7E0,7.6E1,1.1E1,3E0,4E0,9.3E1],"tree_param":{"num_deleted":"0","num_feature":"18","num_nodes":"121","size_leaf_vector":"1"}},{"base_weights":[-2.676415E-4,-4.1655153E-2,5.4647688E-2,-7.953554E-2,-1.2745499E-2,1.369279E-2,8.344293E-2,-2.78871E-2,-9.248565E-2,1.5592423E-2,-3.3471674E-2,-1.410923E-2,4.66531E-2,5.0398916E-2,1.1222518E-1,-5.004084E-2,-9.438689E-3,-1.09155126E-1,-6.045424E-2,-5.8755185E-4,4.143149E-2,-5.083931E-2,4.198999E-3,-3.242544E-2,3.9238865E-3,2.9064655E-2,7.298451E-2,2.90353E-2,7.038664E-2,9.709564E-2,1.420059E-1,-3.3002102E-3,-2.700223E-2,-1.6827233E-2,1.706513E-2,-1.2816697E-1,-8.856577E-2,-8.394206E-2,-4.2213436E-2,1.9507352E-2,-1.5567582E-2,2.702911E-2,6.3871205E-2,-6.419146E-2,-2.5087805E-2,-9.752133E-3,3.0975426E-2,-5.440681E-2,-1.9423088E-2,-5.390131E-3,2.6573371E-2,-0E0,3.960029E-2,5.4146517E-2,9.476773E-2,4.1831573E-3,4.0634356E-2,5.185813E-2,9.152505E-2,7.439369E-2,1.1511922E-1,5.9435233E-3,8.19006E-3,-1.5140623E-3,-0E0,-1.2090461E-3,-0E0,-0E0,1.4648924E-3,-7.242271E-3,-5.224176E-3,-5.305319E-3,-3.2147714E-3,-4.747489E-3,-2.2460816E-3,-2.9197496E-3,-9.447187E-4,3.0628874E-4,2.3490253E-3,-1.2719731E-3,8.1897964E-4,1.4763443E-4,1.897246E-3,4.3748454E-3,2.3220761E-3,-3.8556892E-3,-2.153862E-3,-1.6538453E-3,5.6631415E-4,-1.3067917E-3,4.1466934E-4,2.4717154E-3,7.8442256E-4,-3.1129832E-3,-7.946387E-4,-1.384139E-3,-0E0,-7.5222977E-4,3.0976516E-4,1.7946224E-4,2.1407616E-3,-8.5697975E-4,9.772276E-4,1.5247165E-3,3.1989235E-3,1.1621702E-3,3.1491753E-3,4.5759557E-4,4.895509E-3,-3.0856152E-4,1.1938184E-3,1.0027608E-3,2.6199722E-3,2.1607855E-3,4.0410305E-3,3.4117382E-3,5.1167486E-3,2.5307068E-3,4.471797E-3,4.5647873E-3,6.765485E-3],"categories":[],"categories_nodes":[],"categories_segments":[],"categories_sizes":[],"default_left":[0,0,0,0,0,0,0,0,0,0,0,0,0,0,0,0,0,0,0,0,0,0,0,0,0,0,0,0,0,0,0,0,0,0,0,0,0,0,0,0,0,0,0,0,0,0,0,0,0,0,0,0,0,0,0,0,0,0,0,0,0,0,0,0,0,0,0,0,0,0,0,0,0,0,0,0,0,0,0,0,0,0,0,0,0,0,0,0,0,0,0,0,0,0,0,0,0,0,0,0,0,0,0,0,0,0,0,0,0,0,0,0,0,0,0,0,0,0,0,0,0],"id":13,"left_children":[1,3,5,7,9,11,13,15,17,19,21,23,25,27,29,31,33,35,37,39,41,43,45,47,49,51,53,55,57,59,61,-1,63,65,67,69,71,73,75,77,79,81,83,85,87,89,91,93,95,97,99,101,103,105,107,109,111,113,115,117,119,-1,-1,-1,-1,-1,-1,-1,-1,-1,-1,-1,-1,-1,-1,-1,-1,-1,-1,-1,-1,-1,-1,-1,-1,-1,-1,-1,-1,-1,-1,-1,-1,-1,-1,-1,-1,-1,-1,-1,-1,-1,-1,-1,-1,-1,-1,-1,-1,-1,-1,-1,-1,-1,-1,-1,-1,-1,-1,-1,-1],"loss_changes":[8.23309E0,2.2533484E0,1.8241439E0,5.8266926E-1,6.9243044E-1,5.949668E-1,8.454671E-1,6.796335E-2,3.566103E-1,2.1105611E-1,4.504223E-1,1.1825151E-1,1.2522292E-1,1.7077446E-1,1.8082762E-1,1.8338993E-2,2.0433307E-2,1.4899635E-1,9.0093255E-2,9.111946E-2,5.1558346E-2,1.5037775E-1,8.2366556E-2,4.186274E-2,3.8968198E-2,5.3254902E-2,2.7578115E-2,5.6171417E-2,6.629789E-2,1.0628319E-1,3.243637E-2,0E0,4.198976E-3,1.071322E-2,4.475994E-3,5.3548813E-2,7.362664E-2,2.684778E-2,4.550445E-2,4.109112E-2,5.7144705E-2,2.7861454E-2,1.2191415E-2,6.787658E-2,5.025988E-2,4.3096676E-2,1.4157891E-2,9.946868E-3,1.715609E-2,1.4512125E-2,1.5364345E-2,1.7569635E-2,1.7903984E-2,8.2104355E-3,1.8499196E-3,1.639555E-2,2.5841936E-2,1.4390677E-2,6.3335896E-4,3.512299E-2,5.0605536E-2,0E0,0E0,0E0,0E0,0E0,0E0,0E0,0E0,0E0,0E0,0E0,0E0,0E0,0E0,0E0,0E0,0E0,0E0,0E0,0E0,0E0,0E0,0E0,0E0,0E0,0E0,0E0,0E0,0E0,0E0,0E0,0E0,0E0,0E0,0E0,0E0,0E0,0E0,0E0,0E0,0E0,0E0,0E0,0E0,0E0,0E0,0E0,0E0,0E0,0E0,0E0,0E0,0E0,0E0,0E0,0E0,0E0,0E0,0E0,0E0],"parents":[2147483647,0,0,1,1,2,2,3,3,4,4,5,5,6,6,7,7,8,8,9,9,10,10,11,11,12,12,13,13,14,14,15,15,16,16,17,17,18,18,19,19,20,20,21,21,22,22,23,23,24,24,25,25,26,26,27,27,28,28,29,29,30,30,32,32,33,33,34,34,35,35,36,36,37,37,38,38,39,39,40,40,41,41,42,42,43,43,44,44,45,45,46,46,47,47,48,48,49,49,50,50,51,51,52,52,53,53,54,54,55,55,56,56,57,57,58,58,59,59,60,60],"right_children":[2,4,6,8,10,12,14,16,18,20,22,24,26,28,30,32,34,36,38,40,42,44,46,48,50,52,54,56,58,60,62,-1,64,66,68,70,72,74,76,78,80,82,84,86,88,90,92,94,96,98,100,102,104,106,108,110,112,114,116,118,120,-1,-1,-1,-1,-1,-1,-1,-1,-1,-1,-1,-1,-1,-1,-1,-1,-1,-1,-1,-1,-1,-1,-1,-1,-1,-1,-1,-1,-1,-1,-1,-1,-1,-1,-1,-1,-1,-1,-1,-1,-1,-1,-1,-1,-1,-1,-1,-1,-1,-1,-1,-1,-1,-1,-1,-1,-1,-1,-1,-1],"split_conditions":[1.3257402E-1,-2.166769E-1,-2.9237542E-1,-6.4475954E-1,1.8888588E-1,8.4321064E-1,7.3917544E-1,-2.2914949E-1,-4.953614E-1,8.746434E-1,3.7144306E-1,-4.7108043E-2,5.223888E-1,7.1693814E-1,1.6282489E0,-1.0266871E-1,1.0224348E0,8.6248964E-2,-2.9713106E-1,-7.304614E-1,1.3130589E-1,5.918397E-1,4.6682817E-1,-5.8960485E-1,6.7198896E-1,1.0862894E0,1.4776899E0,-5.332639E-1,3.557068E-1,6.5385604E-1,1.407295E0,-3.3002102E-3,1.9977031E0,-7.150255E-1,6.5696996E-1,2.3069532E-1,7.790347E-2,8.672356E-1,1.9138178E-1,7.771218E-1,9.807644E-1,-4.2214257E-1,-8.551187E-1,3.1153357E-1,9.873874E-1,7.838304E-1,-2.459296E-1,-6.519434E-1,-7.945551E-1,5.161026E-1,-1.061977E0,-2.892254E-1,1.9262141E0,-8.4492743E-1,-2.531067E-1,6.870079E-1,-2.892254E-1,8.9727354E-1,-2.892254E-1,-2.4157038E-1,-2.1413052E-1,5.9435233E-3,8.19006E-3,-1.5140623E-3,-0E0,-1.2090461E-3,-0E0,-0E0,1.4648924E-3,-7.242271E-3,-5.224176E-3,-5.305319E-3,-3.2147714E-3,-4.747489E-3,-2.2460816E-3,-2.9197496E-3,-9.447187E-4,3.0628874E-4,2.3490253E-3,-1.2719731E-3,8.1897964E-4,1.4763443E-4,1.897246E-3,4.3748454E-3,2.3220761E-3,-3.8556892E-3,-2.153862E-3,-1.6538453E-3,5.6631415E-4,-1.3067917E-3,4.1466934E-4,2.4717154E-3,7.8442256E-4,-3.1129832E-3,-7.946387E-4,-1.384139E-3,-0E0,-7.5222977E-4,3.0976516E-4,1.7946224E-4,2.1407616E-3,-8.5697975E-4,9.772276E-4,1.5247165E-3,3.1989235E-3,1.1621702E-3,3.1491753E-3,4.5759557E-4,4.895509E-3,-3.0856152E-4,1.1938184E-3,1.0027608E-3,2.6199722E-3,2.1607855E-3,4.0410305E-3,3.4117382E-3,5.1167486E-3,2.5307068E-3,4.471797E-3,4.5647873E-3,6.765485E-3],"split_indices":[15,1,1,4,4,15,15,5,15,1,14,7,7,1,15,7,7,5,7,4,5,7,7,5,5,15,15,7,7,1,14,0,10,1,5,7,7,5,5,5,7,7,4,5,5,14,10,1,8,15,1,5,15,5,14,5,5,5,5,7,5,0,0,0,0,0,0,0,0,0,0,0,0,0,0,0,0,0,0,0,0,0,0,0,0,0,0,0,0,0,0,0,0,0,0,0,0,0,0,0,0,0,0,0,0,0,0,